svm_type c_svc
kernel_type rbf
gamma 0.125
nr_class 6
total_sv 72
rho -0.18327302441237001 -0.04880407732080503 -0.25341930999118123 0.38647240529386484 -0.24091126631754603 0.052582805240434433 -0.04238894029120209 0.66865434903379262 -0.041970161793444177 -0.10333863500932514 0.49485317850620952 -0.056369948905131001 0.54226396423664303 -0.0086550977694643504 -0.62103400748667259
label 16 8 13 15 10 12
nr_sv 12 12 12 12 12 12
SV
1 0.78806284488524503 0.7603027040264505 1 1 1:0.019230769 2:0.26282051 3:0.17307692 4:0.12820513 5:0.23076923 6:0.064102564 7:0.057692308 8:0.032051282 9:0.019230769 10:0.012820513 11:0.025641026 12:0.0064102564 13:0.038461538 14:0.63461538 15:0.051282051 16:0.096153846 17:0.032051282 18:0.032051282 19:0.038461538 20:0.044871795 21:0.025641026 22:0.019230769 23:0.038461538 24:0.53846154 25:0.14102564 26:0.076923077 27:0.044871795 28:0.032051282 29:0.064102564 30:0.019230769 31:0.19871795 32:0.25641026 33:0.038461538 34:0.17307692 35:0.1474359 36:0.08974359 37:0.025641026 38:0.025641026 39:0.012820513 40:0.032051282 41:0.012820513 42:0.012820513 43:0.019230769 44:0.019230769 45:0.044871795 46:0.24358974 47:0.55128205 48:0.038461538 49:0.025641026 50:0.032051282 51:0.019230769 52:0.019230769 53:0.019230769 54:0.012820513 55:0.032051282 56:0.057692308 57:0.27564103 58:0.16666667 59:0.34615385 60:0.051282051 61:0.019230769 62:0.019230769 63:0.012820513 64:0.012820513 65:0.019230769 66:0.051282051 67:0.23717949 68:0.18589744 69:0.064102564 70:0.37820513 71:0.019230769 72:0.032051282 73:0.051282051 74:0.21794872 75:0.038461538 76:0.019230769 77:0.044871795 78:0.37179487 79:0.17307692 80:0.032051282 81:0.038461538 82:0.044871795 83:0.52564103 84:0.16025641 85:0.019230769 86:0.070512821 87:0.038461538 88:0.038461538 89:0.025641026 90:0.038461538 91:0.33974359 92:0.076923077 93:0.051282051 94:0.26282051 95:0.051282051 96:0.070512821 97:0.032051282 98:0.019230769 99:0.038461538 100:0.057692308 101:0.33333333 102:0.019230769 103:0.064102564 104:0.14102564 105:0.19230769 106:0.070512821 107:0.057692308 108:0.019230769 109:0.019230769 110:0.083333333 111:0.064102564 112:0.064102564 113:0.076923077 114:0.1025641 115:0.25 116:0.051282051 117:0.19871795 118:0.16025641 119:0.012820513 120:0.019230769 121:0.35897436 122:0.083333333 123:0.032051282 124:0.096153846 125:0.20512821 126:0.10897436 127:0.032051282 128:0.032051282 129:0.025641026 130:0.025641026 131:0.18589744 132:0.15384615 133:0.083333333 134:0.057692308 135:0.25 136:0.10897436 137:0.032051282 138:0.083333333 139:0.025641026 140:0.019230769 141:0.22435897 142:0.15384615 143:0.076923077 144:0.11538462 145:0.17948718 146:0.083333333 147:0.012820513 148:0.076923077 149:0.044871795 150:0.032051282 151:0.064102564 152:0.032051282 153:0.057692308 154:0.25 155:0.08974359 156:0.12179487 157:0.25641026 158:0.064102564 159:0.032051282 160:0.032051282 161:0.0064102564 162:0.10897436 163:0.20512821 164:0.038461538 165:0.051282051 166:0.08974359 167:0.25641026 168:0.083333333 169:0.1025641 170:0.057692308 171:0.28205128 172:0.08974359 173:0.012820513 174:0.064102564 175:0.051282051 176:0.30769231 177:0.044871795 178:0.032051282 179:0.083333333 180:0.032051282 181:0.012820513 182:0.19871795 183:0.41025641 184:0.096153846 185:0.025641026 186:0.032051282 187:0.051282051 188:0.076923077 189:0.064102564 190:0.032051282 191:0.083333333 192:0.28205128 193:0.10897436 194:0.044871795 195:0.051282051 196:0.044871795 197:0.032051282 198:0.012820513 199:0.012820513 200:0.32692308 201:0.025641026 202:0.21794872 203:0.21153846 204:0.083333333 205:0.051282051 206:0.070512821 207:0.0064102564 208:0.032051282 209:0.019230769 210:0.28205128 211:0.019230769 212:0.26282051 213:0.18589744 214:0.064102564 215:0.044871795 216:0.025641026 217:0.051282051 218:0.0064102564 219:0.038461538 220:0.30128205 221:0.019230769 222:0.17307692 223:0.24358974 224:0.083333333 225:0.10897436 226:0.032051282 227:0.012820513 228:0.019230769 229:0.012820513 230:0.29487179 231:0.25641026 232:0.20512821 233:0.37820513 234:0.038461538 235:0.019230769 236:0.019230769 237:0.0064102564 238:0.051282051 239:0.012820513 240:0.012820513 241:0.47435897 242:0.33333333 243:0.044871795 244:0.012820513 245:0.032051282 246:0.012820513 247:0.0064102564 248:0.019230769 249:0.038461538 250:0.025641026 251:0.35897436 252:0.42307692 253:0.070512821 254:0.019230769 255:0.019230769 256:0.012820513 257:0.012820513 258:0.019230769 259:0.032051282 260:0.032051282 261:0.019230769 262:0.032051282 263:0.14102564 264:0.24358974 265:0.13461538 266:0.070512821 267:0.019230769 268:0.0064102564 269:0.032051282 270:0.30128205 271:0.019230769 272:0.032051282 273:0.23717949 274:0.25641026 275:0.34615385 276:0.038461538 277:0.0064102564 278:0.025641026 279:0.025641026 280:0.012820513 281:0.36538462 282:0.038461538 283:0.24358974 284:0.20512821 285:0.044871795 286:0.012820513 287:0.019230769 288:0.025641026 289:0.025641026 290:0.019230769 291:0.33333333 292:0.044871795 293:0.083333333 294:0.34615385 295:0.076923077 296:0.019230769 297:0.019230769 298:0.019230769 299:0.025641026 300:0.032051282 301:0.019230769 302:0.019230769 303:0.012820513 304:0.0064102564 305:0.37820513 306:0.038461538 307:0.1025641 308:0.34615385 309:0.038461538 310:0.038461538 311:0.27564103 312:0.019230769 313:0.025641026 314:0.0064102564 315:0.012820513 316:0.0064102564 317:0.064102564 318:0.064102564 319:0.23717949 320:0.28846154 321:0.28205128 322:0.025641026 323:0.019230769 324:0.019230769 325:0.025641026 326:0.032051282 327:0.019230769 328:0.038461538 329:0.13461538 330:0.40384615 331:0.26923077 332:0.019230769 333:0.032051282 334:0.019230769 335:0.012820513 336:0.044871795 338:0.025641026 339:0.19230769 340:0.38461538 341:0.019230769 342:0.032051282 343:0.13461538 344:0.27564103 345:0.0064102564 347:0.025641026 348:0.076923077 349:0.12179487 350:0.30769231 351:0.28205128 352:0.012820513 353:0.012820513 354:0.019230769 355:0.0064102564 356:0.012820513 357:0.051282051 358:0.22435897 359:0.34615385 360:0.032051282 361:0.28205128 362:0.012820513 363:0.032051282 364:0.012820513 365:0.012820513 366:0.044871795 367:0.019230769 368:0.064102564 369:0.16025641 370:0.35897436 371:0.28205128 372:0.012820513 373:0.038461538 374:0.012820513 375:0.0064102564 376:0.057692308 377:0.012820513 378:0.032051282 379:0.20512821 380:0.33974359 381:0.038461538 382:0.012820513 383:0.019230769 384:0.019230769 385:0.032051282 386:0.25641026 387:0.08974359 388:0.11538462 389:0.18589744 390:0.23076923 391:0.083333333 392:0.044871795 393:0.23076923 394:0.012820513 395:0.025641026 396:0.08974359 397:0.083333333 398:0.25641026 399:0.14102564 400:0.032051282 401:0.10897436 402:0.18589744 403:0.076923077 404:0.012820513 405:0.0064102564 406:0.051282051 407:0.1025641 408:0.28846154 409:0.12820513 410:0.038461538 411:0.057692308 412:0.044871795 413:0.25641026 414:0.019230769 415:0.096153846 416:0.057692308 417:0.12179487 418:0.18589744 419:0.12820513 420:0.032051282 421:0.051282051 422:0.057692308 423:0.076923077 424:0.08974359 425:0.24358974 426:0.057692308 427:0.25 428:0.076923077 429:0.064102564 430:0.032051282 431:0.019230769 432:0.012820513 433:0.064102564 434:0.032051282 435:0.044871795 436:0.08974359 437:0.26923077 438:0.16025641 439:0.29487179 440:0.012820513 441:0.032051282 442:0.012820513 443:0.057692308 444:0.051282051 445:0.057692308 446:0.1025641 447:0.23717949 448:0.096153846 449:0.083333333 450:0.26923077 451:0.08974359 452:0.17307692 453:0.12820513 454:0.096153846 455:0.15384615 456:0.17307692 457:0.076923077 458:0.064102564 459:0.032051282 460:0.012820513 461:0.019230769 462:0.032051282 463:0.08974359 464:0.22435897 465:0.10897436 466:0.18589744 467:0.083333333 468:0.23076923 469:0.012820513 470:0.012820513 471:0.064102564 472:0.083333333 473:0.032051282 474:0.044871795 475:0.076923077 476:0.32692308 477:0.23076923 478:0.1025641 479:0.019230769 480:0.019230769 481:0.019230769 482:0.019230769 483:0.08974359 484:0.057692308 485:0.076923077 486:0.32692308 487:0.16666667 488:0.10897436 489:0.1025641 490:0.032051282 491:0.012820513 492:0.0064102564 493:0.012820513 494:0.070512821 495:0.10897436 496:0.5 497:0.19230769 498:0.057692308 499:0.0064102564 500:0.032051282 501:0.070512821 502:0.025641026 503:0.083333333 504:0.44230769 505:0.064102564 506:0.019230769 507:0.012820513 508:0.025641026 509:0.025641026 510:0.23076923 511:0.064102564 512:0.33974359 513:0.19871795 514:0.019230769 515:0.012820513 516:0.064102564 517:0.019230769 518:0.019230769 519:0.025641026 520:0.23717949 521:0.038461538 522:0.1474359 523:0.41666667 524:0.019230769 525:0.044871795 526:0.038461538 527:0.019230769 528:0.032051282 529:0.032051282 530:0.21153846 531:0.019230769 533:0.0064102564 534:0.025641026 535:0.012820513 536:0.0064102564 537:0.044871795 538:0.41025641 539:0.064102564 540:0.41025641 541:0.038461538 542:0.18589744 543:0.38461538 544:0.044871795 545:0.019230769 546:0.025641026 547:0.019230769 548:0.019230769 549:0.032051282 550:0.23076923 551:0.08974359 552:0.44871795 553:0.057692308 554:0.025641026 555:0.012820513 556:0.051282051 557:0.025641026 558:0.019230769 559:0.032051282 560:0.23717949 561:0.08974359 562:0.44230769 563:0.083333333 564:0.012820513 565:0.019230769 566:0.044871795 567:0.025641026 568:0.019230769 569:0.025641026 570:0.23717949 
0.42763115964720605 0.51809109854140689 1 0.79953575051289916 0.71540742172456473 1:0.057142857 2:0.042857143 3:0.25714286 4:0.3 5:0.021428571 6:0.085714286 7:0.05 8:0.05 9:0.035714286 10:0.1 11:0.078571429 12:0.042857143 13:0.14285714 14:0.19285714 15:0.064285714 16:0.20714286 17:0.12142857 18:0.035714286 19:0.035714286 20:0.078571429 21:0.085714286 22:0.05 23:0.042857143 24:0.47142857 25:0.14285714 26:0.028571429 27:0.021428571 28:0.05 29:0.021428571 30:0.085714286 31:0.064285714 32:0.05 33:0.035714286 34:0.27857143 35:0.05 36:0.14285714 37:0.15714286 38:0.092857143 39:0.035714286 40:0.092857143 41:0.035714286 42:0.014285714 43:0.24285714 44:0.10714286 45:0.064285714 46:0.071428571 47:0.092857143 48:0.042857143 49:0.035714286 50:0.29285714 51:0.0071428571 52:0.38571429 53:0.14285714 54:0.071428571 55:0.085714286 56:0.12857143 57:0.071428571 58:0.021428571 59:0.021428571 60:0.064285714 61:0.021428571 62:0.078571429 63:0.057142857 64:0.34285714 65:0.11428571 66:0.092857143 67:0.064285714 68:0.092857143 69:0.071428571 70:0.064285714 71:0.064285714 72:0.071428571 73:0.18571429 74:0.10714286 75:0.25 76:0.12857143 77:0.05 78:0.021428571 79:0.014285714 80:0.10714286 81:0.0071428571 82:0.064285714 83:0.042857143 84:0.1 85:0.05 86:0.17142857 87:0.33571429 88:0.078571429 89:0.064285714 90:0.085714286 91:0.014285714 92:0.0071428571 93:0.028571429 94:0.15714286 95:0.12857143 96:0.0071428571 97:0.014285714 98:0.15714286 99:0.34285714 100:0.14285714 101:0.014285714 102:0.0071428571 103:0.078571429 104:0.14285714 105:0.057142857 106:0.042857143 107:0.028571429 108:0.14285714 109:0.37142857 110:0.11428571 111:0.11428571 112:0.064285714 113:0.035714286 114:0.028571429 115:0.078571429 116:0.064285714 117:0.05 118:0.3 119:0.18571429 120:0.078571429 121:0.33571429 122:0.078571429 123:0.014285714 124:0.021428571 125:0.035714286 126:0.042857143 127:0.028571429 128:0.028571429 129:0.021428571 130:0.39285714 131:0.25 132:0.1 133:0.057142857 134:0.028571429 135:0.11428571 136:0.028571429 137:0.021428571 138:0.0071428571 139:0.021428571 140:0.37142857 141:0.33571429 142:0.05 143:0.092857143 144:0.05 145:0.0071428571 146:0.035714286 147:0.057142857 148:0.24285714 149:0.064285714 150:0.064285714 151:0.028571429 152:0.13571429 153:0.078571429 154:0.05 155:0.1 156:0.28571429 157:0.15714286 158:0.035714286 159:0.035714286 160:0.092857143 161:0.19285714 162:0.15714286 163:0.071428571 164:0.014285714 165:0.071428571 166:0.057142857 167:0.021428571 168:0.021428571 169:0.33571429 170:0.057142857 171:0.22142857 172:0.17857143 173:0.014285714 174:0.064285714 175:0.078571429 176:0.021428571 177:0.014285714 178:0.32857143 179:0.028571429 180:0.05 181:0.23571429 182:0.16428571 183:0.021428571 184:0.028571429 185:0.10714286 186:0.021428571 187:0.1 188:0.25714286 189:0.028571429 190:0.035714286 191:0.1 192:0.057142857 193:0.057142857 194:0.092857143 195:0.1 196:0.071428571 197:0.042857143 198:0.27857143 199:0.078571429 200:0.12142857 201:0.035714286 202:0.17142857 203:0.20714286 204:0.064285714 205:0.042857143 206:0.014285714 207:0.035714286 208:0.035714286 209:0.035714286 210:0.35714286 211:0.13571429 212:0.21428571 213:0.10714286 214:0.064285714 215:0.021428571 216:0.021428571 217:0.035714286 218:0.035714286 219:0.05 220:0.31428571 221:0.078571429 222:0.17857143 223:0.021428571 224:0.05 225:0.078571429 226:0.014285714 227:0.021428571 228:0.057142857 229:0.021428571 230:0.47857143 231:0.3 232:0.035714286 233:0.028571429 234:0.10714286 235:0.15 236:0.23571429 237:0.042857143 238:0.035714286 239:0.05 240:0.014285714 241:0.35 242:0.028571429 243:0.14285714 244:0.30714286 245:0.11428571 246:0.014285714 247:0.0071428571 248:0.0071428571 249:0.014285714 250:0.014285714 251:0.3 252:0.042857143 253:0.17857143 254:0.15 255:0.22857143 256:0.057142857 257:0.014285714 258:0.0071428571 259:0.0071428571 260:0.014285714 261:0.22857143 262:0.15 263:0.071428571 264:0.042857143 265:0.028571429 266:0.042857143 267:0.014285714 268:0.028571429 269:0.27857143 270:0.11428571 271:0.014285714 272:0.021428571 273:0.035714286 274:0.05 275:0.3 276:0.14285714 277:0.15 278:0.15 279:0.05 280:0.085714286 281:0.22142857 282:0.14285714 283:0.13571429 284:0.15 285:0.27142857 286:0.028571429 287:0.0071428571 288:0.0071428571 289:0.014285714 290:0.021428571 291:0.3 292:0.12142857 293:0.17857143 294:0.21428571 295:0.11428571 296:0.028571429 298:0.014285714 299:0.014285714 300:0.014285714 301:0.10714286 302:0.21428571 303:0.085714286 304:0.064285714 305:0.05 306:0.078571429 307:0.22857143 308:0.078571429 309:0.035714286 310:0.057142857 311:0.37142857 312:0.085714286 313:0.021428571 314:0.05 315:0.028571429 316:0.014285714 317:0.014285714 318:0.014285714 319:0.12142857 320:0.27857143 321:0.43571429 322:0.042857143 323:0.057142857 324:0.028571429 325:0.021428571 326:0.014285714 327:0.014285714 328:0.27142857 329:0.10714286 330:0.0071428571 331:0.22857143 332:0.22857143 333:0.078571429 334:0.035714286 335:0.014285714 336:0.014285714 337:0.014285714 338:0.17857143 339:0.2 340:0.0071428571 341:0.057142857 342:0.021428571 343:0.057142857 344:0.12857143 345:0.17142857 346:0.15 347:0.28571429 348:0.12142857 350:0.0071428571 351:0.30714286 352:0.10714286 353:0.05 354:0.057142857 355:0.028571429 356:0.021428571 357:0.021428571 358:0.014285714 359:0.38571429 360:0.0071428571 361:0.22857143 362:0.23571429 363:0.071428571 364:0.028571429 365:0.014285714 366:0.014285714 367:0.092857143 368:0.27857143 369:0.028571429 370:0.0071428571 371:0.4 372:0.078571429 373:0.057142857 374:0.028571429 375:0.014285714 376:0.014285714 377:0.014285714 378:0.35714286 379:0.028571429 380:0.0071428571 381:0.12142857 382:0.057142857 383:0.078571429 384:0.035714286 385:0.035714286 386:0.11428571 387:0.071428571 388:0.071428571 389:0.13571429 390:0.27857143 391:0.1 392:0.028571429 393:0.035714286 394:0.042857143 395:0.042857143 396:0.05 397:0.21428571 398:0.071428571 399:0.085714286 400:0.32857143 401:0.092857143 402:0.042857143 403:0.042857143 404:0.042857143 405:0.042857143 406:0.042857143 407:0.19285714 408:0.085714286 409:0.30714286 410:0.10714286 411:0.071428571 412:0.035714286 413:0.021428571 414:0.042857143 415:0.05 416:0.071428571 417:0.05 418:0.092857143 419:0.42857143 420:0.13571429 421:0.05 422:0.021428571 423:0.042857143 424:0.028571429 425:0.042857143 426:0.085714286 427:0.34285714 428:0.085714286 429:0.035714286 430:0.26428571 431:0.0071428571 432:0.014285714 433:0.028571429 434:0.028571429 435:0.021428571 436:0.014285714 437:0.064285714 438:0.17142857 439:0.17142857 440:0.47857143 441:0.014285714 442:0.042857143 443:0.014285714 444:0.028571429 445:0.021428571 447:0.16428571 448:0.20714286 449:0.32857143 450:0.17857143 451:0.071428571 452:0.042857143 453:0.042857143 454:0.057142857 455:0.035714286 456:0.2 457:0.071428571 458:0.11428571 459:0.085714286 460:0.27857143 461:0.078571429 462:0.22857143 463:0.13571429 464:0.15714286 465:0.014285714 466:0.014285714 467:0.014285714 468:0.014285714 469:0.028571429 470:0.31428571 471:0.014285714 472:0.014285714 473:0.014285714 475:0.05 476:0.22857143 477:0.16428571 478:0.13571429 479:0.021428571 480:0.35714286 481:0.014285714 482:0.0071428571 483:0.014285714 484:0.0071428571 485:0.0071428571 486:0.085714286 487:0.22142857 488:0.13571429 489:0.14285714 490:0.36428571 491:0.25714286 492:0.042857143 493:0.13571429 494:0.11428571 495:0.057142857 496:0.1 497:0.11428571 498:0.028571429 499:0.05 500:0.1 501:0.37142857 502:0.021428571 503:0.014285714 504:0.014285714 505:0.014285714 506:0.021428571 507:0.028571429 508:0.028571429 509:0.021428571 510:0.46428571 511:0.29285714 512:0.064285714 513:0.042857143 514:0.021428571 515:0.021428571 516:0.028571429 517:0.035714286 518:0.057142857 519:0.078571429 520:0.35714286 521:0.32857143 522:0.05 523:0.035714286 524:0.05 525:0.021428571 526:0.014285714 527:0.18571429 528:0.20714286 529:0.064285714 530:0.042857143 531:0.10714286 532:0.10714286 533:0.12857143 534:0.021428571 535:0.23571429 536:0.057142857 537:0.05 538:0.17142857 539:0.014285714 540:0.10714286 541:0.39285714 542:0.021428571 543:0.014285714 544:0.014285714 545:0.021428571 546:0.014285714 547:0.014285714 548:0.021428571 549:0.25 550:0.23571429 551:0.27857143 552:0.064285714 553:0.035714286 554:0.028571429 555:0.035714286 556:0.035714286 557:0.028571429 558:0.057142857 559:0.33571429 560:0.1 561:0.31428571 562:0.042857143 563:0.035714286 564:0.028571429 565:0.042857143 566:0.05 567:0.05 568:0.34285714 569:0.057142857 570:0.035714286 
1 1 1 1 1 1:0.017241379 2:0.068965517 3:0.094827586 4:0.068965517 5:0.21551724 6:0.077586207 7:0.077586207 8:0.3362069 9:0.025862069 10:0.017241379 11:0.10344828 12:0.12931034 13:0.19827586 14:0.068965517 15:0.086206897 16:0.077586207 17:0.19827586 18:0.10344828 19:0.025862069 20:0.0086206897 21:0.13793103 22:0.26724138 23:0.0086206897 24:0.1637931 25:0.043103448 26:0.034482759 27:0.11206897 28:0.077586207 29:0.060344828 30:0.094827586 31:0.077586207 32:0.034482759 33:0.0086206897 34:0.13793103 35:0.1637931 36:0.13793103 37:0.23275862 38:0.12068966 39:0.077586207 40:0.0086206897 41:0.043103448 42:0.094827586 43:0.18965517 44:0.094827586 45:0.14655172 46:0.20689655 47:0.086206897 48:0.060344828 49:0.043103448 50:0.034482759 51:0.12931034 52:0.26724138 53:0.18103448 54:0.21551724 55:0.051724138 56:0.043103448 57:0.051724138 58:0.025862069 59:0.017241379 60:0.017241379 61:0.26724138 62:0.25862069 63:0.27586207 64:0.077586207 65:0.043103448 66:0.034482759 67:0.0086206897 68:0.0086206897 69:0.0086206897 70:0.017241379 71:0.043103448 72:0.051724138 73:0.025862069 75:0.15517241 76:0.29310345 77:0.12931034 78:0.25862069 79:0.034482759 80:0.0086206897 81:0.077586207 82:0.15517241 83:0.13793103 84:0.1637931 85:0.12068966 86:0.21551724 87:0.11206897 89:0.0086206897 90:0.0086206897 91:0.051724138 92:0.094827586 93:0.094827586 95:0.0086206897 96:0.0086206897 97:0.017241379 98:0.18965517 99:0.23275862 100:0.30172414 101:0.086206897 102:0.086206897 103:0.043103448 104:0.025862069 105:0.0086206897 106:0.0086206897 107:0.017241379 108:0.14655172 109:0.30172414 110:0.27586207 111:0.18965517 112:0.068965517 113:0.11206897 114:0.043103448 115:0.10344828 116:0.24137931 117:0.13793103 118:0.043103448 119:0.043103448 120:0.017241379 121:0.077586207 122:0.0086206897 123:0.094827586 124:0.39655172 125:0.086206897 126:0.034482759 127:0.086206897 128:0.12931034 129:0.051724138 130:0.034482759 131:0.077586207 132:0.017241379 133:0.051724138 134:0.094827586 135:0.11206897 136:0.12068966 137:0.043103448 138:0.060344828 139:0.21551724 140:0.20689655 141:0.12931034 142:0.086206897 143:0.086206897 144:0.14655172 145:0.14655172 146:0.30172414 147:0.043103448 148:0.025862069 149:0.0086206897 150:0.025862069 151:0.017241379 152:0.0086206897 154:0.017241379 155:0.43103448 156:0.20689655 157:0.15517241 158:0.11206897 159:0.034482759 160:0.017241379 161:0.043103448 162:0.034482759 163:0.034482759 164:0.034482759 165:0.043103448 166:0.060344828 167:0.10344828 168:0.22413793 169:0.30172414 170:0.12068966 171:0.068965517 172:0.060344828 173:0.077586207 174:0.11206897 175:0.051724138 176:0.086206897 177:0.060344828 178:0.32758621 179:0.060344828 180:0.094827586 181:0.094827586 182:0.068965517 183:0.1637931 184:0.086206897 185:0.12068966 186:0.060344828 187:0.20689655 188:0.094827586 189:0.077586207 190:0.025862069 191:0.12068966 192:0.025862069 194:0.060344828 195:0.11206897 196:0.28448276 197:0.10344828 198:0.20689655 199:0.043103448 200:0.043103448 201:0.26724138 202:0.11206897 203:0.17241379 204:0.18103448 205:0.017241379 206:0.017241379 207:0.0086206897 208:0.017241379 209:0.017241379 210:0.18965517 211:0.15517241 212:0.11206897 213:0.13793103 214:0.094827586 215:0.22413793 216:0.051724138 217:0.0086206897 218:0.017241379 219:0.0086206897 220:0.18965517 221:0.13793103 222:0.017241379 223:0.060344828 224:0.23275862 225:0.18965517 226:0.10344828 227:0.034482759 228:0.0086206897 229:0.017241379 230:0.19827586 231:0.10344828 232:0.12068966 233:0.025862069 234:0.14655172 235:0.18965517 236:0.017241379 237:0.077586207 238:0.11206897 239:0.19827586 240:0.0086206897 241:0.068965517 242:0.077586207 243:0.086206897 244:0.12068966 245:0.18103448 246:0.086206897 247:0.14655172 248:0.043103448 249:0.12068966 250:0.068965517 251:0.043103448 252:0.18103448 253:0.24137931 254:0.12931034 255:0.12068966 256:0.034482759 258:0.034482759 259:0.13793103 260:0.077586207 261:0.13793103 262:0.18103448 263:0.18965517 264:0.18965517 265:0.017241379 266:0.0086206897 267:0.017241379 268:0.025862069 269:0.017241379 270:0.21551724 271:0.1637931 272:0.1637931 273:0.051724138 274:0.1637931 275:0.043103448 276:0.034482759 277:0.043103448 278:0.077586207 279:0.18103448 280:0.077586207 281:0.0086206897 282:0.034482759 283:0.060344828 284:0.034482759 285:0.17241379 286:0.1637931 287:0.28448276 288:0.043103448 289:0.11206897 290:0.086206897 291:0.043103448 292:0.068965517 293:0.094827586 294:0.11206897 295:0.13793103 296:0.26724138 297:0.051724138 298:0.025862069 299:0.11206897 300:0.086206897 301:0.14655172 302:0.14655172 303:0.3362069 304:0.034482759 305:0.060344828 306:0.051724138 307:0.10344828 308:0.086206897 309:0.025862069 310:0.0086206897 311:0.21551724 312:0.060344828 313:0.060344828 314:0.21551724 315:0.068965517 316:0.060344828 317:0.094827586 318:0.060344828 319:0.068965517 320:0.094827586 321:0.21551724 322:0.025862069 323:0.077586207 324:0.094827586 325:0.094827586 326:0.10344828 327:0.017241379 328:0.086206897 329:0.12931034 330:0.15517241 331:0.19827586 332:0.086206897 333:0.077586207 334:0.094827586 335:0.068965517 336:0.086206897 337:0.034482759 338:0.043103448 339:0.12931034 340:0.18103448 341:0.13793103 342:0.12068966 343:0.1637931 344:0.17241379 345:0.086206897 346:0.060344828 347:0.034482759 348:0.14655172 349:0.060344828 350:0.017241379 351:0.21551724 352:0.11206897 353:0.068965517 354:0.034482759 355:0.27586207 356:0.017241379 357:0.0086206897 358:0.10344828 359:0.11206897 360:0.051724138 361:0.21551724 362:0.025862069 363:0.12068966 364:0.043103448 365:0.11206897 366:0.068965517 367:0.11206897 368:0.060344828 369:0.12068966 370:0.12068966 371:0.21551724 372:0.086206897 373:0.077586207 374:0.094827586 375:0.060344828 376:0.068965517 377:0.10344828 378:0.017241379 379:0.034482759 380:0.24137931 381:0.19827586 382:0.11206897 383:0.068965517 384:0.060344828 385:0.034482759 386:0.034482759 387:0.043103448 388:0.086206897 389:0.24137931 390:0.12068966 391:0.18103448 392:0.068965517 393:0.060344828 394:0.060344828 395:0.051724138 396:0.060344828 397:0.19827586 398:0.12068966 399:0.086206897 400:0.11206897 401:0.1637931 402:0.068965517 403:0.060344828 404:0.051724138 405:0.060344828 406:0.068965517 407:0.28448276 408:0.068965517 409:0.060344828 410:0.11206897 411:0.15517241 412:0.086206897 413:0.068965517 414:0.068965517 415:0.043103448 416:0.051724138 417:0.22413793 418:0.12068966 419:0.094827586 420:0.086206897 421:0.10344828 422:0.060344828 423:0.13793103 424:0.10344828 425:0.043103448 426:0.19827586 427:0.0086206897 428:0.18103448 429:0.086206897 430:0.077586207 431:0.12068966 432:0.094827586 433:0.043103448 434:0.043103448 435:0.25862069 436:0.32758621 437:0.034482759 438:0.017241379 439:0.017241379 440:0.043103448 441:0.15517241 442:0.068965517 443:0.043103448 444:0.11206897 445:0.18103448 446:0.24137931 447:0.12068966 448:0.017241379 449:0.025862069 450:0.034482759 451:0.20689655 452:0.060344828 453:0.051724138 454:0.051724138 455:0.043103448 456:0.060344828 457:0.14655172 458:0.19827586 459:0.086206897 460:0.094827586 461:0.11206897 462:0.017241379 463:0.060344828 464:0.15517241 465:0.068965517 466:0.13793103 467:0.10344828 468:0.10344828 469:0.13793103 470:0.10344828 471:0.26724138 472:0.11206897 473:0.094827586 474:0.034482759 475:0.043103448 476:0.025862069 477:0.051724138 478:0.30172414 479:0.034482759 480:0.034482759 481:0.068965517 482:0.18103448 483:0.094827586 484:0.086206897 485:0.086206897 486:0.060344828 487:0.051724138 488:0.26724138 489:0.051724138 490:0.051724138 491:0.068965517 492:0.077586207 493:0.12931034 494:0.24137931 495:0.034482759 496:0.043103448 497:0.060344828 498:0.086206897 499:0.068965517 500:0.18965517 501:0.17241379 502:0.12931034 503:0.025862069 504:0.1637931 505:0.060344828 506:0.077586207 507:0.025862069 508:0.034482759 509:0.043103448 510:0.26724138 511:0.23275862 512:0.086206897 513:0.14655172 514:0.086206897 515:0.051724138 516:0.051724138 517:0.077586207 518:0.043103448 519:0.051724138 520:0.17241379 521:0.051724138 522:0.20689655 523:0.1637931 524:0.094827586 525:0.086206897 526:0.060344828 527:0.077586207 528:0.051724138 529:0.18103448 530:0.025862069 531:0.077586207 532:0.068965517 534:0.068965517 535:0.28448276 536:0.043103448 537:0.051724138 538:0.11206897 539:0.086206897 540:0.20689655 541:0.23275862 542:0.11206897 543:0.043103448 544:0.0086206897 545:0.043103448 546:0.15517241 547:0.086206897 548:0.051724138 549:0.060344828 550:0.20689655 551:0.21551724 552:0.18103448 553:0.10344828 554:0.051724138 555:0.068965517 556:0.034482759 557:0.060344828 558:0.051724138 559:0.043103448 560:0.18965517 561:0.086206897 562:0.29310345 563:0.12931034 564:0.043103448 565:0.068965517 566:0.051724138 567:0.060344828 568:0.017241379 569:0.051724138 570:0.19827586 
0.71471490290259709 0.51781826650358764 0.96325758771336223 0.89001735627200496 0.5594461509328833 1:0.32407407 2:0.10185185 3:0.13888889 4:0.11111111 5:0.12037037 6:0.018518519 7:0.0092592593 8:0.074074074 9:0.064814815 10:0.037037037 11:0.046296296 12:0.055555556 13:0.56481481 14:0.17592593 15:0.055555556 16:0.0092592593 17:0.018518519 18:0.018518519 19:0.0092592593 20:0.046296296 21:0.11111111 22:0.037037037 23:0.046296296 24:0.11111111 25:0.53703704 26:0.083333333 27:0.018518519 28:0.0092592593 29:0.0092592593 30:0.037037037 31:0.037037037 32:0.037037037 33:0.16666667 34:0.51851852 35:0.15740741 36:0.0092592593 37:0.0092592593 39:0.0092592593 40:0.055555556 41:0.046296296 42:0.018518519 43:0.0092592593 44:0.055555556 45:0.15740741 46:0.13888889 47:0.064814815 48:0.38888889 49:0.046296296 50:0.074074074 51:0.046296296 52:0.018518519 53:0.037037037 54:0.018518519 55:0.055555556 56:0.055555556 57:0.037037037 58:0.19444444 59:0.47222222 60:0.064814815 61:0.055555556 62:0.037037037 63:0.018518519 64:0.083333333 65:0.037037037 66:0.064814815 67:0.53703704 68:0.046296296 69:0.083333333 70:0.037037037 71:0.074074074 72:0.055555556 73:0.28703704 74:0.37962963 75:0.11111111 76:0.0092592593 78:0.0092592593 79:0.027777778 80:0.046296296 81:0.074074074 82:0.33333333 83:0.0092592593 84:0.10185185 85:0.16666667 86:0.12037037 87:0.10185185 88:0.074074074 89:0.0092592593 90:0.0092592593 91:0.064814815 92:0.064814815 93:0.14814815 94:0.074074074 95:0.21296296 96:0.28703704 97:0.046296296 98:0.092592593 100:0.0092592593 101:0.037037037 102:0.037037037 103:0.083333333 104:0.083333333 105:0.19444444 106:0.24074074 107:0.23148148 108:0.083333333 110:0.0092592593 111:0.47222222 112:0.046296296 113:0.018518519 114:0.018518519 115:0.0092592593 116:0.092592593 117:0.037037037 118:0.074074074 119:0.10185185 120:0.12962963 121:0.12037037 122:0.15740741 123:0.28703704 124:0.26851852 125:0.027777778 127:0.018518519 128:0.027777778 129:0.027777778 130:0.064814815 131:0.12962963 132:0.13888889 133:0.074074074 134:0.027777778 135:0.046296296 136:0.083333333 137:0.38888889 138:0.027777778 139:0.018518519 140:0.064814815 141:0.018518519 142:0.027777778 143:0.027777778 144:0.037037037 145:0.15740741 146:0.11111111 147:0.046296296 148:0.092592593 149:0.11111111 150:0.37037037 151:0.055555556 152:0.018518519 153:0.037037037 154:0.12962963 155:0.14814815 156:0.064814815 157:0.0092592593 158:0.027777778 159:0.018518519 160:0.49074074 161:0.092592593 162:0.018518519 163:0.12037037 164:0.074074074 165:0.074074074 166:0.092592593 167:0.018518519 168:0.037037037 169:0.10185185 170:0.37037037 171:0.037037037 172:0.027777778 173:0.092592593 174:0.083333333 175:0.10185185 176:0.11111111 177:0.25925926 178:0.12962963 179:0.083333333 180:0.074074074 181:0.037037037 182:0.092592593 183:0.055555556 184:0.12037037 185:0.074074074 186:0.12037037 187:0.19444444 188:0.2037037 189:0.037037037 190:0.064814815 191:0.34259259 192:0.10185185 193:0.037037037 194:0.083333333 195:0.0092592593 196:0.027777778 197:0.2962963 198:0.037037037 199:0.027777778 200:0.037037037 201:0.046296296 202:0.018518519 203:0.43518519 204:0.074074074 205:0.018518519 206:0.018518519 207:0.027777778 208:0.0092592593 209:0.037037037 210:0.31481481 211:0.055555556 212:0.027777778 213:0.39814815 214:0.055555556 215:0.046296296 216:0.055555556 217:0.0092592593 219:0.11111111 220:0.24074074 221:0.037037037 222:0.26851852 223:0.18518519 224:0.083333333 225:0.0092592593 226:0.037037037 227:0.0092592593 228:0.064814815 229:0.15740741 230:0.14814815 231:0.037037037 232:0.0092592593 233:0.018518519 234:0.0092592593 235:0.064814815 236:0.092592593 237:0.40740741 238:0.15740741 239:0.12962963 240:0.074074074 241:0.074074074 242:0.12037037 243:0.064814815 244:0.046296296 245:0.037037037 246:0.055555556 247:0.074074074 248:0.027777778 249:0.0092592593 250:0.49074074 251:0.083333333 252:0.12962963 253:0.064814815 254:0.046296296 255:0.083333333 256:0.064814815 257:0.027777778 259:0.42592593 260:0.074074074 261:0.14814815 262:0.32407407 263:0.083333333 265:0.0092592593 266:0.0092592593 267:0.018518519 268:0.0092592593 269:0.17592593 270:0.22222222 271:0.027777778 272:0.037037037 273:0.046296296 274:0.027777778 275:0.33333333 276:0.11111111 277:0.064814815 278:0.083333333 279:0.19444444 280:0.074074074 281:0.083333333 282:0.12962963 283:0.12037037 284:0.064814815 285:0.018518519 286:0.027777778 287:0.027777778 288:0.018518519 289:0.083333333 290:0.42592593 291:0.11111111 292:0.19444444 293:0.064814815 294:0.037037037 295:0.0092592593 296:0.0092592593 297:0.037037037 298:0.018518519 299:0.21296296 300:0.30555556 301:0.027777778 302:0.037037037 303:0.10185185 304:0.15740741 305:0.055555556 306:0.083333333 307:0.046296296 308:0.39814815 309:0.027777778 310:0.064814815 311:0.22222222 312:0.12037037 313:0.037037037 314:0.018518519 315:0.0092592593 316:0.018518519 317:0.018518519 318:0.0092592593 319:0.027777778 320:0.51851852 321:0.33333333 322:0.064814815 323:0.0092592593 324:0.018518519 325:0.0092592593 326:0.0092592593 328:0.0092592593 329:0.4537037 330:0.092592593 331:0.2037037 332:0.17592593 333:0.037037037 334:0.0092592593 335:0.018518519 337:0.046296296 338:0.46296296 339:0.027777778 340:0.018518519 341:0.42592593 342:0.13888889 343:0.037037037 344:0.027777778 345:0.055555556 346:0.064814815 347:0.064814815 348:0.074074074 349:0.064814815 350:0.046296296 351:0.33333333 352:0.027777778 353:0.037037037 354:0.018518519 355:0.0092592593 356:0.018518519 357:0.0092592593 358:0.018518519 359:0.018518519 360:0.50925926 361:0.22222222 362:0.16666667 363:0.037037037 364:0.0092592593 365:0.0092592593 366:0.0092592593 367:0.0092592593 368:0.0092592593 369:0.34259259 370:0.18518519 371:0.13888889 372:0.14814815 373:0.12037037 374:0.018518519 375:0.018518519 376:0.0092592593 377:0.0092592593 378:0.0092592593 379:0.31481481 380:0.21296296 381:0.092592593 382:0.055555556 383:0.055555556 384:0.037037037 385:0.037037037 386:0.037037037 387:0.055555556 388:0.092592593 389:0.26851852 390:0.26851852 391:0.074074074 392:0.018518519 393:0.037037037 394:0.0092592593 395:0.027777778 396:0.055555556 397:0.055555556 398:0.074074074 399:0.51851852 400:0.12962963 401:0.074074074 402:0.018518519 403:0.027777778 404:0.018518519 405:0.064814815 406:0.037037037 407:0.046296296 408:0.44444444 409:0.13888889 410:0.12962963 411:0.064814815 412:0.037037037 413:0.0092592593 414:0.037037037 415:0.13888889 416:0.41666667 417:0.027777778 418:0.046296296 419:0.10185185 420:0.12037037 421:0.074074074 422:0.48148148 423:0.055555556 424:0.046296296 425:0.018518519 426:0.018518519 427:0.083333333 428:0.17592593 429:0.018518519 430:0.027777778 431:0.56481481 432:0.064814815 433:0.018518519 434:0.018518519 435:0.018518519 436:0.083333333 437:0.046296296 438:0.037037037 439:0.055555556 440:0.092592593 441:0.52777778 442:0.092592593 443:0.027777778 444:0.018518519 445:0.074074074 446:0.055555556 447:0.046296296 448:0.037037037 449:0.037037037 450:0.083333333 451:0.092592593 452:0.018518519 453:0.018518519 454:0.018518519 455:0.0092592593 456:0.018518519 457:0.064814815 458:0.22222222 459:0.12962963 460:0.40740741 461:0.027777778 462:0.092592593 463:0.28703704 464:0.22222222 465:0.037037037 466:0.064814815 467:0.092592593 468:0.064814815 469:0.046296296 470:0.064814815 471:0.11111111 472:0.44444444 473:0.046296296 474:0.018518519 475:0.018518519 476:0.0092592593 477:0.083333333 478:0.064814815 479:0.064814815 480:0.13888889 481:0.43518519 482:0.037037037 483:0.064814815 484:0.055555556 485:0.018518519 486:0.018518519 487:0.027777778 488:0.092592593 489:0.092592593 490:0.15740741 491:0.34259259 492:0.083333333 493:0.083333333 494:0.027777778 496:0.055555556 497:0.074074074 498:0.14814815 499:0.11111111 500:0.074074074 501:0.53703704 502:0.018518519 503:0.018518519 504:0.0092592593 505:0.018518519 506:0.0092592593 507:0.018518519 508:0.074074074 509:0.055555556 510:0.24074074 511:0.037037037 512:0.027777778 513:0.40740741 514:0.083333333 516:0.074074074 517:0.027777778 518:0.055555556 519:0.037037037 520:0.25 521:0.018518519 522:0.018518519 523:0.48148148 525:0.092592593 526:0.074074074 527:0.037037037 528:0.0092592593 529:0.12037037 530:0.14814815 531:0.092592593 532:0.10185185 533:0.018518519 534:0.083333333 535:0.43518519 536:0.074074074 537:0.027777778 538:0.037037037 539:0.037037037 540:0.092592593 541:0.50925926 542:0.027777778 543:0.018518519 544:0.018518519 545:0.018518519 546:0.0092592593 547:0.018518519 548:0.018518519 549:0.13888889 550:0.22222222 551:0.064814815 552:0.046296296 553:0.32407407 554:0.046296296 555:0.046296296 556:0.074074074 557:0.027777778 558:0.027777778 559:0.12037037 560:0.22222222 561:0.074074074 562:0.30555556 563:0.092592593 564:0.074074074 565:0.074074074 566:0.0092592593 567:0.12037037 568:0.16666667 569:0.064814815 570:0.018518519 
0.83529381980019513 0.32893158452414439 1 0.70440132530217481 0.90826290260230602 1:0.12121212 2:0.090909091 3:0.15151515 4:0.25252525 5:0.04040404 6:0.090909091 7:0.070707071 8:0.050505051 9:0.01010101 10:0.12121212 11:0.11111111 12:0.03030303 13:0.060606061 14:0.28282828 15:0.1010101 16:0.02020202 17:0.080808081 18:0.16161616 19:0.060606061 20:0.090909091 21:0.090909091 22:0.04040404 23:0.070707071 24:0.29292929 25:0.080808081 26:0.04040404 27:0.1010101 28:0.16161616 29:0.080808081 30:0.04040404 31:0.090909091 32:0.04040404 33:0.070707071 34:0.38383838 35:0.050505051 36:0.11111111 37:0.01010101 38:0.090909091 39:0.050505051 40:0.1010101 41:0.11111111 42:0.11111111 43:0.090909091 44:0.1010101 45:0.28282828 46:0.24242424 47:0.01010101 48:0.01010101 49:0.01010101 50:0.03030303 51:0.03030303 52:0.01010101 53:0.11111111 54:0.11111111 55:0.080808081 56:0.080808081 57:0.070707071 58:0.34343434 59:0.12121212 60:0.04040404 61:0.03030303 62:0.02020202 63:0.050505051 64:0.090909091 65:0.080808081 66:0.04040404 67:0.1010101 68:0.1010101 69:0.42424242 70:0.060606061 71:0.090909091 72:0.03030303 73:0.03030303 74:0.18181818 75:0.33333333 76:0.15151515 77:0.090909091 78:0.050505051 79:0.01010101 80:0.03030303 81:0.01010101 83:0.02020202 84:0.03030303 85:0.13131313 86:0.43434343 87:0.16161616 88:0.090909091 89:0.070707071 90:0.050505051 91:0.01010101 92:0.060606061 93:0.03030303 94:0.14141414 95:0.11111111 96:0.070707071 97:0.2020202 98:0.12121212 99:0.050505051 100:0.2020202 101:0.01010101 102:0.060606061 103:0.080808081 104:0.11111111 105:0.050505051 106:0.090909091 107:0.15151515 108:0.12121212 109:0.11111111 110:0.21212121 111:0.12121212 112:0.11111111 113:0.14141414 114:0.01010101 115:0.02020202 116:0.090909091 117:0.16161616 118:0.21212121 119:0.050505051 120:0.080808081 121:0.01010101 122:0.070707071 123:0.14141414 124:0.26262626 125:0.070707071 126:0.03030303 127:0.02020202 128:0.02020202 129:0.02020202 130:0.35353535 131:0.070707071 132:0.16161616 133:0.11111111 134:0.050505051 135:0.04040404 136:0.01010101 137:0.02020202 138:0.01010101 139:0.2020202 140:0.32323232 141:0.070707071 142:0.01010101 143:0.04040404 144:0.090909091 145:0.17171717 146:0.070707071 147:0.02020202 148:0.02020202 149:0.23232323 150:0.27272727 151:0.12121212 152:0.050505051 153:0.03030303 154:0.2020202 155:0.17171717 156:0.1010101 157:0.090909091 158:0.15151515 159:0.04040404 160:0.04040404 161:0.01010101 163:0.050505051 164:0.03030303 165:0.11111111 166:0.13131313 167:0.060606061 168:0.11111111 169:0.15151515 170:0.34343434 171:0.01010101 172:0.050505051 173:0.1010101 174:0.18181818 175:0.11111111 176:0.02020202 177:0.090909091 178:0.14141414 179:0.11111111 180:0.18181818 181:0.01010101 182:0.02020202 183:0.060606061 184:0.17171717 185:0.11111111 186:0.070707071 187:0.1010101 188:0.080808081 189:0.17171717 190:0.2020202 191:0.24242424 192:0.03030303 193:0.050505051 194:0.02020202 195:0.02020202 196:0.14141414 197:0.14141414 198:0.03030303 199:0.26262626 200:0.060606061 201:0.19191919 202:0.25252525 203:0.11111111 204:0.070707071 205:0.060606061 206:0.02020202 207:0.01010101 208:0.02020202 209:0.02020202 210:0.24242424 211:0.19191919 212:0.12121212 213:0.17171717 214:0.060606061 215:0.050505051 216:0.090909091 217:0.03030303 218:0.01010101 219:0.03030303 220:0.24242424 221:0.18181818 222:0.070707071 223:0.1010101 224:0.02020202 225:0.17171717 226:0.11111111 227:0.01010101 228:0.03030303 229:0.01010101 230:0.29292929 231:0.02020202 232:0.01010101 233:0.01010101 234:0.090909091 235:0.28282828 236:0.34343434 237:0.18181818 238:0.02020202 239:0.01010101 240:0.03030303 241:0.14141414 242:0.3030303 243:0.060606061 244:0.04040404 245:0.11111111 246:0.090909091 247:0.070707071 248:0.090909091 249:0.03030303 250:0.060606061 251:0.43434343 252:0.02020202 253:0.070707071 254:0.11111111 255:0.12121212 256:0.060606061 257:0.090909091 258:0.060606061 260:0.03030303 261:0.18181818 262:0.060606061 263:0.1010101 264:0.03030303 265:0.060606061 266:0.15151515 267:0.050505051 268:0.02020202 269:0.04040404 270:0.3030303 271:0.1010101 272:0.070707071 273:0.02020202 274:0.060606061 275:0.15151515 276:0.03030303 277:0.12121212 278:0.33333333 279:0.080808081 280:0.03030303 281:0.090909091 282:0.16161616 283:0.18181818 284:0.01010101 285:0.01010101 286:0.02020202 287:0.04040404 288:0.11111111 289:0.19191919 290:0.18181818 291:0.34343434 292:0.080808081 293:0.01010101 294:0.02020202 295:0.01010101 296:0.02020202 297:0.14141414 298:0.26262626 299:0.02020202 300:0.090909091 301:0.17171717 302:0.23232323 303:0.24242424 304:0.050505051 305:0.04040404 307:0.01010101 308:0.03030303 309:0.16161616 310:0.060606061 311:0.29292929 312:0.03030303 313:0.04040404 314:0.050505051 315:0.03030303 316:0.02020202 317:0.03030303 318:0.03030303 319:0.2020202 320:0.27272727 321:0.3030303 322:0.03030303 323:0.070707071 324:0.03030303 325:0.02020202 326:0.02020202 327:0.13131313 328:0.060606061 329:0.13131313 330:0.2020202 331:0.28282828 332:0.04040404 333:0.090909091 334:0.02020202 335:0.02020202 336:0.02020202 337:0.03030303 338:0.16161616 339:0.03030303 340:0.3030303 341:0.090909091 342:0.17171717 343:0.15151515 344:0.050505051 345:0.04040404 346:0.050505051 347:0.13131313 348:0.080808081 349:0.12121212 350:0.11111111 351:0.3030303 352:0.02020202 353:0.03030303 354:0.04040404 355:0.04040404 356:0.02020202 357:0.03030303 358:0.060606061 359:0.23232323 360:0.22222222 361:0.3030303 362:0.03030303 363:0.04040404 364:0.04040404 365:0.03030303 366:0.02020202 367:0.060606061 368:0.14141414 369:0.1010101 370:0.23232323 371:0.31313131 372:0.03030303 373:0.060606061 374:0.03030303 375:0.02020202 376:0.01010101 377:0.02020202 378:0.18181818 379:0.11111111 380:0.22222222 381:0.14141414 382:0.050505051 383:0.04040404 384:0.060606061 385:0.03030303 386:0.03030303 387:0.04040404 388:0.14141414 389:0.2020202 390:0.26262626 391:0.13131313 392:0.050505051 393:0.03030303 394:0.03030303 395:0.060606061 396:0.18181818 397:0.13131313 398:0.050505051 399:0.1010101 400:0.23232323 401:0.13131313 402:0.050505051 403:0.03030303 404:0.050505051 405:0.060606061 406:0.26262626 407:0.03030303 408:0.050505051 409:0.11111111 410:0.22222222 411:0.1010101 412:0.050505051 413:0.03030303 414:0.03030303 415:0.03030303 416:0.050505051 417:0.2020202 418:0.13131313 419:0.17171717 420:0.2020202 421:0.050505051 422:0.080808081 423:0.16161616 424:0.18181818 425:0.16161616 426:0.14141414 427:0.13131313 428:0.02020202 429:0.01010101 430:0.060606061 431:0.02020202 432:0.060606061 433:0.080808081 434:0.1010101 435:0.070707071 436:0.090909091 437:0.070707071 438:0.19191919 439:0.15151515 440:0.16161616 441:0.03030303 442:0.12121212 443:0.050505051 444:0.090909091 445:0.12121212 446:0.04040404 447:0.12121212 448:0.24242424 449:0.15151515 450:0.03030303 451:0.11111111 452:0.050505051 453:0.03030303 454:0.03030303 455:0.050505051 456:0.080808081 457:0.17171717 458:0.17171717 459:0.21212121 460:0.090909091 461:0.18181818 462:0.16161616 463:0.050505051 464:0.060606061 465:0.050505051 466:0.15151515 467:0.04040404 468:0.050505051 469:0.02020202 470:0.23232323 471:0.17171717 472:0.13131313 473:0.23232323 474:0.03030303 475:0.02020202 476:0.080808081 477:0.04040404 478:0.02020202 479:0.03030303 480:0.24242424 481:0.17171717 482:0.26262626 483:0.070707071 484:0.060606061 485:0.01010101 486:0.01010101 487:0.090909091 488:0.04040404 489:0.04040404 490:0.24242424 491:0.090909091 492:0.060606061 493:0.38383838 494:0.070707071 495:0.050505051 496:0.080808081 497:0.04040404 498:0.060606061 499:0.090909091 500:0.070707071 501:0.29292929 502:0.04040404 503:0.060606061 504:0.11111111 505:0.04040404 506:0.03030303 507:0.04040404 508:0.03030303 509:0.070707071 510:0.28282828 511:0.29292929 512:0.060606061 513:0.050505051 514:0.04040404 515:0.02020202 516:0.04040404 517:0.13131313 518:0.050505051 519:0.050505051 520:0.26262626 521:0.080808081 522:0.1010101 523:0.22222222 524:0.04040404 525:0.03030303 526:0.04040404 527:0.13131313 528:0.070707071 529:0.060606061 530:0.22222222 531:0.19191919 532:0.18181818 533:0.04040404 534:0.04040404 535:0.14141414 536:0.13131313 537:0.04040404 538:0.080808081 539:0.050505051 540:0.1010101 541:0.28282828 542:0.1010101 543:0.11111111 544:0.04040404 545:0.03030303 546:0.04040404 547:0.03030303 548:0.02020202 549:0.050505051 550:0.29292929 551:0.31313131 552:0.04040404 553:0.070707071 554:0.080808081 555:0.02020202 556:0.01010101 557:0.1010101 558:0.03030303 559:0.050505051 560:0.28282828 561:0.28282828 562:0.080808081 563:0.080808081 564:0.060606061 565:0.02020202 566:0.01010101 567:0.090909091 568:0.04040404 569:0.050505051 570:0.28282828 
0.73967358182282683 0.40676748496161547 1 1 0.5806114109257231 1:0.072164948 2:0.06185567 3:0.051546392 4:0.020618557 5:0.072164948 6:0.48453608 7:0.020618557 8:0.010309278 9:0.072164948 10:0.13402062 11:0.041237113 12:0.041237113 13:0.030927835 14:0.041237113 15:0.030927835 16:0.010309278 17:0.041237113 18:0.11340206 19:0.11340206 20:0.53608247 21:0.072164948 22:0.010309278 23:0.030927835 24:0.030927835 25:0.030927835 26:0.020618557 27:0.06185567 28:0.06185567 29:0.16494845 30:0.51546392 31:0.051546392 32:0.072164948 33:0.030927835 34:0.030927835 35:0.020618557 36:0.041237113 37:0.18556701 38:0.36082474 39:0.072164948 40:0.13402062 41:0.072164948 42:0.051546392 43:0.010309278 44:0.020618557 45:0.030927835 46:0.11340206 47:0.41237113 48:0.1443299 49:0.041237113 50:0.10309278 51:0.041237113 52:0.030927835 53:0.041237113 54:0.072164948 55:0.051546392 56:0.072164948 57:0.21649485 58:0.3814433 59:0.030927835 60:0.06185567 61:0.06185567 62:0.072164948 63:0.072164948 64:0.092783505 65:0.072164948 66:0.06185567 67:0.010309278 68:0.010309278 69:0.35051546 70:0.19587629 71:0.06185567 72:0.020618557 73:0.020618557 74:0.020618557 75:0.030927835 76:0.041237113 77:0.17525773 78:0.15463918 79:0.041237113 80:0.43298969 81:0.06185567 82:0.092783505 83:0.20618557 84:0.16494845 85:0.11340206 86:0.010309278 88:0.010309278 89:0.10309278 90:0.2371134 91:0.030927835 92:0.010309278 93:0.020618557 94:0.051546392 95:0.28865979 96:0.25773196 97:0.010309278 98:0.010309278 99:0.030927835 100:0.28865979 101:0.041237113 103:0.030927835 104:0.010309278 105:0.36082474 106:0.22680412 107:0.010309278 108:0.020618557 109:0.030927835 110:0.26804124 111:0.41237113 112:0.10309278 113:0.010309278 114:0.010309278 115:0.010309278 116:0.010309278 117:0.082474227 118:0.2371134 119:0.072164948 120:0.051546392 121:0.40206186 122:0.072164948 123:0.092783505 124:0.020618557 125:0.020618557 126:0.020618557 127:0.020618557 128:0.092783505 129:0.19587629 130:0.06185567 131:0.41237113 132:0.06185567 133:0.010309278 135:0.010309278 136:0.010309278 137:0.020618557 138:0.31958763 139:0.082474227 140:0.072164948 141:0.28865979 142:0.19587629 144:0.010309278 145:0.010309278 146:0.15463918 147:0.17525773 148:0.041237113 149:0.06185567 150:0.06185567 151:0.11340206 152:0.051546392 153:0.030927835 154:0.020618557 155:0.010309278 156:0.010309278 157:0.06185567 158:0.041237113 159:0.41237113 160:0.24742268 161:0.030927835 162:0.020618557 163:0.46391753 164:0.082474227 165:0.020618557 166:0.010309278 167:0.092783505 168:0.1443299 169:0.072164948 170:0.06185567 171:0.072164948 172:0.18556701 173:0.26804124 174:0.06185567 175:0.010309278 176:0.020618557 177:0.11340206 178:0.11340206 179:0.082474227 180:0.072164948 181:0.051546392 182:0.010309278 183:0.21649485 184:0.24742268 185:0.06185567 186:0.010309278 187:0.041237113 188:0.13402062 189:0.15463918 190:0.072164948 191:0.29896907 192:0.12371134 193:0.11340206 194:0.030927835 195:0.020618557 196:0.010309278 197:0.082474227 198:0.20618557 199:0.051546392 200:0.06185567 201:0.30927835 202:0.28865979 203:0.010309278 204:0.030927835 206:0.041237113 207:0.020618557 208:0.030927835 209:0.092783505 210:0.17525773 211:0.17525773 212:0.36082474 213:0.072164948 214:0.020618557 215:0.010309278 216:0.030927835 217:0.030927835 218:0.020618557 219:0.051546392 220:0.22680412 221:0.36082474 222:0.2371134 223:0.010309278 224:0.020618557 226:0.020618557 227:0.010309278 228:0.06185567 229:0.020618557 230:0.25773196 231:0.020618557 233:0.010309278 234:0.030927835 235:0.051546392 236:0.041237113 237:0.010309278 238:0.092783505 239:0.53608247 240:0.20618557 241:0.051546392 242:0.21649485 243:0.092783505 244:0.051546392 245:0.020618557 246:0.010309278 248:0.010309278 249:0.42268041 250:0.12371134 251:0.092783505 252:0.17525773 253:0.11340206 254:0.020618557 255:0.020618557 256:0.020618557 257:0.010309278 258:0.010309278 259:0.010309278 260:0.5257732 261:0.46391753 262:0.051546392 263:0.051546392 265:0.020618557 266:0.010309278 267:0.041237113 268:0.16494845 269:0.16494845 270:0.030927835 271:0.1443299 272:0.092783505 273:0.10309278 274:0.2371134 275:0.20618557 276:0.030927835 277:0.082474227 278:0.051546392 279:0.010309278 280:0.041237113 281:0.21649485 282:0.020618557 283:0.020618557 284:0.030927835 285:0.051546392 286:0.030927835 287:0.092783505 288:0.11340206 289:0.29896907 290:0.12371134 291:0.18556701 292:0.06185567 293:0.020618557 294:0.041237113 295:0.030927835 296:0.051546392 297:0.082474227 298:0.010309278 299:0.3814433 300:0.13402062 301:0.030927835 302:0.010309278 303:0.020618557 304:0.06185567 305:0.030927835 306:0.041237113 307:0.19587629 308:0.030927835 309:0.10309278 310:0.4742268 311:0.31958763 312:0.020618557 313:0.010309278 314:0.030927835 315:0.020618557 316:0.010309278 317:0.020618557 318:0.072164948 319:0.072164948 320:0.42268041 321:0.11340206 322:0.20618557 323:0.041237113 324:0.030927835 325:0.010309278 326:0.010309278 328:0.030927835 329:0.092783505 330:0.46391753 331:0.28865979 332:0.020618557 333:0.082474227 334:0.020618557 336:0.06185567 337:0.06185567 338:0.42268041 339:0.010309278 340:0.030927835 341:0.051546392 342:0.030927835 343:0.06185567 344:0.020618557 345:0.4742268 346:0.13402062 347:0.041237113 348:0.072164948 349:0.06185567 350:0.051546392 351:0.28865979 352:0.041237113 353:0.020618557 354:0.010309278 355:0.020618557 356:0.030927835 357:0.020618557 358:0.041237113 359:0.020618557 360:0.50515464 361:0.30927835 362:0.06185567 363:0.020618557 364:0.020618557 365:0.010309278 367:0.010309278 368:0.13402062 369:0.41237113 370:0.020618557 371:0.2371134 372:0.1443299 373:0.020618557 374:0.020618557 376:0.010309278 377:0.082474227 378:0.45360825 379:0.010309278 380:0.020618557 381:0.11340206 382:0.030927835 383:0.030927835 384:0.020618557 385:0.020618557 386:0.030927835 387:0.06185567 388:0.06185567 389:0.17525773 390:0.45360825 391:0.092783505 392:0.041237113 393:0.020618557 394:0.030927835 395:0.020618557 396:0.020618557 397:0.030927835 398:0.10309278 399:0.13402062 400:0.50515464 401:0.092783505 402:0.020618557 403:0.020618557 404:0.030927835 405:0.030927835 406:0.030927835 407:0.082474227 408:0.092783505 409:0.39175258 410:0.20618557 411:0.082474227 412:0.030927835 413:0.041237113 414:0.020618557 415:0.42268041 416:0.12371134 417:0.051546392 418:0.041237113 419:0.041237113 420:0.1443299 421:0.53608247 422:0.13402062 423:0.051546392 424:0.010309278 425:0.010309278 426:0.010309278 427:0.020618557 428:0.010309278 429:0.030927835 430:0.18556701 431:0.51546392 432:0.12371134 433:0.051546392 434:0.020618557 435:0.010309278 436:0.020618557 437:0.010309278 438:0.020618557 439:0.030927835 440:0.19587629 441:0.092783505 442:0.46391753 443:0.06185567 444:0.06185567 445:0.020618557 446:0.020618557 447:0.020618557 448:0.020618557 449:0.041237113 450:0.19587629 451:0.072164948 452:0.041237113 453:0.030927835 454:0.030927835 455:0.020618557 456:0.1443299 457:0.072164948 458:0.13402062 459:0.030927835 460:0.42268041 461:0.041237113 462:0.020618557 463:0.020618557 464:0.030927835 465:0.06185567 466:0.30927835 467:0.28865979 468:0.092783505 469:0.092783505 470:0.041237113 471:0.041237113 472:0.17525773 473:0.37113402 474:0.1443299 475:0.010309278 476:0.010309278 477:0.010309278 478:0.1443299 479:0.051546392 480:0.041237113 481:0.041237113 482:0.32989691 483:0.26804124 484:0.092783505 485:0.020618557 486:0.010309278 487:0.041237113 488:0.082474227 489:0.06185567 490:0.051546392 491:0.41237113 492:0.030927835 493:0.030927835 494:0.041237113 495:0.051546392 496:0.13402062 497:0.12371134 498:0.06185567 499:0.06185567 500:0.051546392 501:0.48453608 502:0.06185567 503:0.030927835 504:0.010309278 505:0.030927835 506:0.020618557 507:0.030927835 508:0.041237113 509:0.030927835 510:0.25773196 511:0.46391753 512:0.041237113 513:0.051546392 515:0.072164948 516:0.030927835 517:0.041237113 518:0.030927835 519:0.020618557 520:0.24742268 521:0.48453608 522:0.020618557 523:0.010309278 524:0.030927835 525:0.11340206 526:0.030927835 527:0.010309278 528:0.020618557 529:0.010309278 530:0.26804124 531:0.15463918 532:0.020618557 533:0.030927835 534:0.051546392 535:0.12371134 536:0.12371134 537:0.32989691 538:0.010309278 539:0.041237113 540:0.11340206 541:0.53608247 542:0.030927835 543:0.020618557 544:0.020618557 545:0.010309278 546:0.010309278 547:0.010309278 548:0.082474227 549:0.041237113 550:0.2371134 551:0.41237113 552:0.082474227 553:0.010309278 554:0.010309278 555:0.030927835 556:0.06185567 557:0.072164948 558:0.06185567 559:0.030927835 560:0.22680412 561:0.4742268 562:0.030927835 564:0.010309278 565:0.092783505 566:0.092783505 567:0.051546392 568:0.030927835 569:0.11340206 570:0.10309278 
0.77815757802896379 0.85703201329114531 1 0.93209447602289563 0.72484109911037953 1:0.046979866 2:0.013422819 3:0.067114094 4:0.087248322 5:0.013422819 6:0.040268456 7:0.060402685 8:0.5033557 9:0.12080537 10:0.046979866 11:0.053691275 12:0.34228188 13:0.2885906 14:0.046979866 15:0.11409396 16:0.033557047 17:0.020134228 18:0.033557047 19:0.046979866 20:0.020134228 21:0.52348993 22:0.10067114 23:0.013422819 24:0.026845638 25:0.020134228 26:0.10738255 27:0.073825503 28:0.040268456 29:0.067114094 30:0.026845638 31:0.37583893 32:0.27516779 33:0.040268456 34:0.093959732 35:0.10067114 36:0.033557047 37:0.013422819 38:0.020134228 39:0.013422819 40:0.033557047 41:0.060402685 42:0.046979866 43:0.20134228 44:0.55704698 45:0.026845638 46:0.026845638 47:0.013422819 48:0.020134228 49:0.013422819 50:0.033557047 51:0.046979866 52:0.033557047 53:0.026845638 54:0.22818792 55:0.29530201 56:0.26845638 57:0.026845638 58:0.013422819 59:0.013422819 60:0.046979866 61:0.053691275 62:0.033557047 63:0.013422819 64:0.22818792 65:0.24161074 66:0.30201342 67:0.046979866 68:0.013422819 69:0.020134228 70:0.046979866 71:0.033557047 72:0.020134228 73:0.26174497 74:0.30872483 75:0.18791946 76:0.053691275 77:0.033557047 78:0.040268456 79:0.033557047 80:0.026845638 81:0.033557047 82:0.013422819 83:0.013422819 84:0.20805369 85:0.22818792 86:0.10738255 87:0.26174497 88:0.073825503 89:0.033557047 90:0.026845638 91:0.37583893 93:0.013422819 94:0.013422819 95:0.046979866 96:0.053691275 97:0.026845638 98:0.1409396 99:0.2147651 100:0.11409396 101:0.20805369 102:0.12080537 103:0.073825503 104:0.026845638 105:0.060402685 106:0.040268456 107:0.10738255 108:0.080536913 109:0.22147651 110:0.060402685 111:0.080536913 112:0.11409396 113:0.060402685 114:0.26845638 115:0.060402685 116:0.30201342 117:0.067114094 118:0.013422819 119:0.013422819 120:0.020134228 121:0.067114094 122:0.046979866 123:0.080536913 124:0.16778523 125:0.12751678 126:0.067114094 127:0.12080537 128:0.14765101 129:0.11409396 130:0.060402685 131:0.026845638 132:0.046979866 133:0.080536913 134:0.1409396 135:0.093959732 136:0.16778523 137:0.067114094 138:0.14765101 139:0.14765101 140:0.080536913 141:0.12080537 142:0.10067114 143:0.12080537 144:0.16778523 145:0.033557047 146:0.093959732 147:0.046979866 148:0.20134228 149:0.073825503 150:0.040268456 151:0.033557047 152:0.013422819 153:0.040268456 154:0.060402685 155:0.060402685 156:0.093959732 157:0.20805369 158:0.067114094 159:0.2885906 160:0.13422819 161:0.053691275 162:0.073825503 163:0.10067114 164:0.046979866 165:0.046979866 166:0.080536913 167:0.046979866 168:0.10067114 169:0.25503356 170:0.19463087 171:0.060402685 172:0.067114094 173:0.026845638 174:0.10067114 175:0.033557047 176:0.060402685 177:0.16107383 178:0.1409396 179:0.20134228 180:0.14765101 181:0.0067114094 182:0.013422819 184:0.0067114094 185:0.11409396 186:0.30201342 187:0.32214765 188:0.18120805 189:0.033557047 190:0.020134228 191:0.2147651 192:0.15436242 193:0.10738255 194:0.36241611 195:0.033557047 196:0.0067114094 197:0.020134228 198:0.033557047 199:0.013422819 200:0.053691275 201:0.087248322 202:0.22147651 203:0.46979866 204:0.093959732 205:0.013422819 206:0.026845638 207:0.033557047 208:0.0067114094 209:0.013422819 210:0.033557047 211:0.020134228 212:0.073825503 213:0.013422819 214:0.053691275 215:0.12080537 216:0.22147651 217:0.20805369 218:0.026845638 219:0.053691275 220:0.20805369 221:0.20805369 222:0.26845638 223:0.013422819 224:0.026845638 225:0.2147651 226:0.12751678 227:0.053691275 228:0.026845638 229:0.026845638 230:0.033557047 231:0.067114094 232:0.26174497 233:0.37583893 234:0.13422819 235:0.053691275 236:0.060402685 237:0.013422819 239:0.0067114094 240:0.026845638 241:0.026845638 242:0.026845638 243:0.26845638 244:0.10738255 245:0.073825503 246:0.2147651 247:0.12751678 248:0.080536913 249:0.026845638 250:0.046979866 251:0.026845638 252:0.013422819 253:0.32885906 254:0.080536913 255:0.040268456 256:0.046979866 257:0.25503356 258:0.10738255 259:0.053691275 260:0.046979866 261:0.16778523 262:0.32214765 263:0.0067114094 264:0.046979866 265:0.026845638 266:0.26174497 267:0.12751678 268:0.0067114094 269:0.0067114094 270:0.026845638 271:0.020134228 272:0.087248322 273:0.040268456 274:0.073825503 275:0.12080537 276:0.27516779 277:0.25503356 278:0.046979866 279:0.033557047 280:0.046979866 281:0.11409396 282:0.053691275 283:0.10738255 284:0.24832215 285:0.046979866 286:0.033557047 287:0.013422819 288:0.22147651 289:0.093959732 290:0.067114094 291:0.10738255 292:0.2147651 293:0.19463087 294:0.026845638 295:0.033557047 296:0.020134228 297:0.020134228 298:0.24832215 299:0.067114094 300:0.067114094 301:0.026845638 304:0.067114094 305:0.24832215 306:0.25503356 307:0.26845638 308:0.020134228 309:0.033557047 310:0.080536913 311:0.26174497 312:0.16778523 313:0.080536913 314:0.013422819 315:0.026845638 316:0.026845638 317:0.020134228 318:0.020134228 319:0.13422819 320:0.24832215 321:0.12751678 322:0.34228188 323:0.040268456 324:0.0067114094 325:0.013422819 326:0.040268456 327:0.0067114094 328:0.0067114094 329:0.013422819 330:0.40268456 331:0.18120805 332:0.25503356 333:0.080536913 334:0.033557047 335:0.026845638 338:0.18791946 339:0.12080537 340:0.11409396 341:0.026845638 342:0.033557047 343:0.060402685 344:0.060402685 345:0.026845638 346:0.020134228 347:0.053691275 348:0.29530201 349:0.32885906 350:0.093959732 351:0.10738255 352:0.32885906 353:0.067114094 354:0.020134228 355:0.026845638 356:0.040268456 357:0.0067114094 358:0.0067114094 359:0.026845638 360:0.36912752 361:0.28187919 362:0.22818792 363:0.013422819 364:0.040268456 365:0.026845638 367:0.0067114094 369:0.040268456 370:0.36241611 371:0.2147651 372:0.29530201 373:0.040268456 374:0.040268456 378:0.18791946 379:0.20805369 380:0.013422819 381:0.10067114 382:0.2885906 383:0.12751678 384:0.026845638 385:0.013422819 386:0.033557047 387:0.013422819 388:0.026845638 389:0.020134228 390:0.34899329 391:0.080536913 392:0.026845638 393:0.033557047 394:0.28187919 395:0.046979866 396:0.10067114 397:0.033557047 398:0.013422819 399:0.0067114094 400:0.37583893 401:0.080536913 402:0.026845638 403:0.026845638 404:0.13422819 405:0.20134228 406:0.10067114 407:0.033557047 408:0.013422819 409:0.14765101 410:0.23489933 411:0.093959732 412:0.053691275 413:0.32885906 414:0.046979866 415:0.12080537 416:0.093959732 417:0.020134228 418:0.013422819 419:0.020134228 420:0.20805369 421:0.16107383 422:0.32885906 423:0.19463087 424:0.046979866 425:0.013422819 427:0.013422819 428:0.0067114094 429:0.013422819 430:0.22147651 431:0.27516779 432:0.16778523 433:0.020134228 434:0.013422819 435:0.013422819 436:0.18120805 437:0.060402685 438:0.013422819 439:0.013422819 440:0.24161074 441:0.33557047 442:0.12080537 443:0.013422819 444:0.0067114094 445:0.0067114094 446:0.067114094 447:0.16778523 448:0.020134228 449:0.013422819 450:0.24832215 451:0.080536913 452:0.27516779 453:0.067114094 454:0.10067114 455:0.020134228 456:0.0067114094 457:0.020134228 458:0.10067114 459:0.14765101 460:0.18120805 461:0.36241611 462:0.10067114 463:0.0067114094 464:0.0067114094 465:0.0067114094 466:0.013422819 467:0.0067114094 468:0.046979866 469:0.26845638 470:0.18120805 471:0.38255034 472:0.053691275 473:0.026845638 474:0.013422819 475:0.0067114094 476:0.020134228 477:0.32885906 478:0.14765101 479:0.0067114094 480:0.013422819 481:0.40268456 482:0.040268456 483:0.020134228 484:0.013422819 485:0.0067114094 486:0.013422819 487:0.2885906 488:0.18791946 489:0.013422819 490:0.013422819 491:0.067114094 492:0.040268456 493:0.067114094 494:0.067114094 495:0.20134228 496:0.026845638 497:0.033557047 498:0.18791946 499:0.24161074 500:0.067114094 501:0.34899329 502:0.067114094 503:0.013422819 504:0.026845638 505:0.013422819 506:0.020134228 507:0.020134228 508:0.093959732 509:0.11409396 510:0.28187919 511:0.17449664 512:0.23489933 513:0.073825503 514:0.0067114094 515:0.013422819 516:0.020134228 517:0.093959732 518:0.10738255 519:0.22818792 520:0.046979866 521:0.093959732 522:0.27516779 523:0.10738255 524:0.020134228 525:0.0067114094 526:0.0067114094 527:0.13422819 528:0.10738255 529:0.20805369 530:0.040268456 531:0.19463087 532:0.0067114094 533:0.080536913 534:0.053691275 535:0.26174497 536:0.093959732 537:0.093959732 538:0.080536913 539:0.060402685 540:0.073825503 541:0.37583893 542:0.026845638 543:0.013422819 544:0.026845638 545:0.013422819 546:0.013422819 547:0.013422819 548:0.060402685 549:0.13422819 550:0.32214765 551:0.17449664 552:0.18791946 553:0.040268456 554:0.040268456 555:0.026845638 556:0.053691275 557:0.053691275 558:0.10067114 559:0.15436242 560:0.16778523 561:0.12751678 562:0.093959732 563:0.11409396 564:0.093959732 565:0.053691275 566:0.033557047 567:0.10738255 568:0.13422819 569:0.1409396 570:0.10067114 
0.71873212696438604 0.45356601572511529 1 0.96961817906863046 0.76105469430098382 1:0.30597015 2:0.067164179 3:0.26119403 4:0.1119403 5:0.059701493 6:0.052238806 7:0.02238806 8:0.044776119 9:0.029850746 10:0.044776119 11:0.044776119 12:0.02238806 13:0.29104478 14:0.14179104 15:0.18656716 16:0.044776119 17:0.074626866 18:0.089552239 19:0.067164179 20:0.037313433 21:0.044776119 22:0.014925373 23:0.014925373 24:0.052238806 25:0.28358209 26:0.14925373 27:0.20149254 28:0.17164179 29:0.044776119 30:0.02238806 31:0.059701493 32:0.014925373 33:0.28358209 34:0.11940299 35:0.1119403 36:0.1119403 37:0.12686567 38:0.067164179 39:0.074626866 40:0.029850746 41:0.14179104 42:0.14179104 43:0.067164179 44:0.29850746 45:0.02238806 46:0.02238806 47:0.12686567 48:0.11940299 49:0.029850746 50:0.029850746 51:0.15671642 52:0.26865672 53:0.14925373 54:0.052238806 55:0.037313433 56:0.037313433 57:0.0074626866 58:0.02238806 59:0.17910448 60:0.089552239 61:0.02238806 62:0.074626866 63:0.23880597 64:0.20149254 65:0.1119403 66:0.02238806 67:0.044776119 69:0.067164179 70:0.21641791 71:0.044776119 72:0.029850746 73:0.31343284 74:0.1119403 75:0.17910448 76:0.14179104 77:0.044776119 78:0.089552239 79:0.029850746 80:0.014925373 81:0.28358209 82:0.014925373 83:0.029850746 84:0.089552239 85:0.074626866 86:0.14179104 87:0.14179104 88:0.074626866 89:0.1119403 90:0.037313433 91:0.39552239 92:0.2238806 93:0.029850746 95:0.029850746 96:0.059701493 97:0.11940299 98:0.10447761 99:0.02238806 100:0.014925373 101:0.26865672 102:0.02238806 103:0.35074627 104:0.0074626866 105:0.0074626866 106:0.082089552 107:0.17164179 108:0.067164179 109:0.014925373 110:0.0074626866 111:0.014925373 112:0.02238806 113:0.037313433 114:0.097014925 115:0.14925373 116:0.2238806 117:0.34328358 118:0.059701493 119:0.029850746 120:0.02238806 121:0.067164179 122:0.052238806 123:0.059701493 124:0.23134328 125:0.23880597 127:0.029850746 128:0.11940299 129:0.12686567 130:0.074626866 131:0.082089552 132:0.3358209 133:0.029850746 134:0.28358209 135:0.1119403 136:0.014925373 137:0.052238806 138:0.059701493 139:0.0074626866 140:0.02238806 141:0.29104478 142:0.14179104 143:0.14925373 144:0.097014925 145:0.037313433 146:0.059701493 147:0.089552239 148:0.082089552 149:0.029850746 150:0.02238806 151:0.02238806 152:0.0074626866 153:0.15671642 154:0.17164179 155:0.11940299 156:0.3880597 157:0.029850746 158:0.014925373 159:0.029850746 160:0.059701493 161:0.34328358 162:0.029850746 163:0.02238806 164:0.059701493 165:0.044776119 166:0.14925373 168:0.029850746 169:0.089552239 170:0.23134328 171:0.18656716 172:0.24626866 173:0.089552239 174:0.0074626866 175:0.11940299 176:0.02238806 177:0.037313433 178:0.089552239 179:0.037313433 180:0.1641791 181:0.2238806 182:0.17164179 183:0.10447761 184:0.029850746 185:0.029850746 186:0.089552239 188:0.067164179 189:0.2238806 190:0.059701493 191:0.2761194 192:0.074626866 193:0.014925373 194:0.014925373 195:0.02238806 197:0.17164179 198:0.089552239 199:0.2761194 200:0.059701493 201:0.31343284 202:0.029850746 203:0.067164179 204:0.14179104 205:0.044776119 206:0.082089552 207:0.037313433 208:0.014925373 209:0.014925373 210:0.25373134 211:0.29850746 212:0.059701493 213:0.14179104 214:0.074626866 215:0.052238806 216:0.074626866 217:0.02238806 218:0.014925373 219:0.014925373 220:0.24626866 221:0.29104478 222:0.029850746 223:0.044776119 224:0.02238806 225:0.02238806 226:0.082089552 227:0.14925373 228:0.052238806 229:0.029850746 230:0.2761194 231:0.2238806 232:0.037313433 233:0.074626866 234:0.014925373 235:0.037313433 236:0.029850746 237:0.2761194 238:0.10447761 239:0.1119403 240:0.089552239 241:0.31343284 242:0.067164179 243:0.1119403 244:0.23880597 245:0.044776119 246:0.037313433 247:0.082089552 248:0.029850746 249:0.02238806 250:0.052238806 251:0.29104478 252:0.089552239 253:0.082089552 254:0.082089552 255:0.20895522 256:0.044776119 257:0.082089552 258:0.037313433 259:0.029850746 260:0.052238806 261:0.1641791 262:0.15671642 263:0.052238806 264:0.014925373 265:0.014925373 266:0.14925373 267:0.089552239 268:0.029850746 269:0.037313433 270:0.29104478 271:0.037313433 272:0.17164179 273:0.14179104 274:0.02238806 275:0.037313433 276:0.2761194 277:0.13432836 278:0.10447761 279:0.037313433 280:0.037313433 281:0.052238806 282:0.11940299 283:0.1119403 284:0.31343284 285:0.052238806 286:0.082089552 287:0.074626866 288:0.082089552 289:0.067164179 290:0.044776119 291:0.12686567 292:0.23880597 293:0.052238806 294:0.18656716 295:0.074626866 296:0.11940299 297:0.052238806 298:0.02238806 299:0.074626866 300:0.052238806 301:0.014925373 302:0.074626866 303:0.31343284 304:0.089552239 305:0.044776119 306:0.067164179 307:0.089552239 308:0.11940299 309:0.12686567 310:0.059701493 311:0.26865672 312:0.029850746 313:0.02238806 314:0.059701493 315:0.029850746 316:0.029850746 317:0.029850746 318:0.074626866 319:0.10447761 320:0.35074627 321:0.29104478 322:0.074626866 323:0.044776119 324:0.029850746 325:0.02238806 326:0.052238806 327:0.044776119 328:0.059701493 329:0.02238806 330:0.35820896 331:0.29104478 332:0.097014925 333:0.037313433 334:0.02238806 335:0.02238806 336:0.074626866 337:0.044776119 338:0.044776119 339:0.20149254 340:0.1641791 341:0.31343284 342:0.029850746 343:0.052238806 344:0.044776119 345:0.044776119 346:0.097014925 347:0.17910448 348:0.1119403 349:0.097014925 350:0.029850746 351:0.28358209 352:0.02238806 353:0.02238806 354:0.097014925 355:0.029850746 356:0.02238806 357:0.014925373 358:0.089552239 359:0.1119403 360:0.30597015 361:0.29850746 362:0.014925373 363:0.11940299 364:0.037313433 365:0.02238806 366:0.044776119 367:0.067164179 368:0.0074626866 369:0.1119403 370:0.2761194 371:0.29104478 372:0.10447761 373:0.044776119 374:0.029850746 375:0.02238806 376:0.014925373 377:0.097014925 378:0.0074626866 379:0.14925373 380:0.23880597 381:0.13432836 382:0.052238806 383:0.044776119 384:0.044776119 385:0.029850746 386:0.029850746 387:0.029850746 388:0.29850746 389:0.13432836 390:0.20149254 391:0.14925373 392:0.044776119 393:0.037313433 394:0.044776119 395:0.059701493 396:0.24626866 397:0.029850746 398:0.037313433 399:0.18656716 400:0.1641791 401:0.15671642 402:0.037313433 403:0.037313433 404:0.037313433 405:0.17910448 406:0.13432836 407:0.02238806 408:0.044776119 409:0.18656716 410:0.1641791 411:0.12686567 412:0.067164179 413:0.037313433 414:0.052238806 415:0.067164179 416:0.25373134 417:0.037313433 418:0.014925373 419:0.21641791 420:0.12686567 421:0.067164179 422:0.052238806 423:0.044776119 424:0.052238806 425:0.097014925 426:0.067164179 427:0.26119403 428:0.052238806 429:0.20895522 430:0.097014925 431:0.059701493 432:0.02238806 433:0.089552239 434:0.052238806 435:0.014925373 436:0.02238806 437:0.23880597 438:0.14925373 439:0.31343284 440:0.037313433 441:0.052238806 442:0.02238806 443:0.082089552 444:0.14925373 445:0.18656716 446:0.052238806 447:0.067164179 448:0.19402985 449:0.14925373 450:0.044776119 451:0.1119403 452:0.052238806 453:0.044776119 454:0.037313433 455:0.029850746 456:0.044776119 457:0.26119403 458:0.13432836 459:0.19402985 460:0.089552239 461:0.1119403 462:0.02238806 463:0.029850746 464:0.014925373 465:0.029850746 466:0.014925373 467:0.029850746 468:0.089552239 469:0.23880597 470:0.41791045 471:0.014925373 472:0.0074626866 473:0.044776119 474:0.14925373 475:0.24626866 476:0.082089552 477:0.059701493 478:0.23880597 479:0.097014925 480:0.059701493 481:0.037313433 482:0.052238806 483:0.37313433 484:0.1641791 485:0.1119403 486:0.12686567 487:0.044776119 488:0.02238806 489:0.02238806 490:0.044776119 491:0.037313433 492:0.059701493 493:0.1119403 494:0.34328358 495:0.15671642 496:0.052238806 497:0.037313433 498:0.044776119 499:0.074626866 500:0.082089552 501:0.35820896 502:0.037313433 503:0.067164179 504:0.029850746 505:0.02238806 506:0.02238806 507:0.037313433 508:0.029850746 509:0.037313433 510:0.35820896 511:0.1641791 512:0.26865672 513:0.029850746 514:0.029850746 515:0.029850746 516:0.02238806 517:0.044776119 518:0.044776119 519:0.067164179 520:0.29850746 521:0.29104478 522:0.17164179 523:0.014925373 524:0.029850746 525:0.02238806 526:0.037313433 527:0.059701493 528:0.052238806 529:0.074626866 530:0.24626866 531:0.1119403 532:0.18656716 533:0.052238806 534:0.0074626866 535:0.037313433 536:0.014925373 537:0.23134328 538:0.097014925 539:0.052238806 540:0.20895522 541:0.34328358 542:0.052238806 543:0.037313433 544:0.067164179 545:0.029850746 546:0.02238806 547:0.02238806 548:0.029850746 549:0.037313433 550:0.35820896 551:0.29850746 552:0.12686567 553:0.044776119 554:0.0074626866 555:0.052238806 556:0.029850746 557:0.037313433 558:0.044776119 559:0.074626866 560:0.28358209 561:0.36567164 562:0.097014925 563:0.014925373 564:0.044776119 565:0.02238806 566:0.067164179 567:0.052238806 568:0.037313433 569:0.11940299 570:0.17910448 
0.63956763518622317 0.81200425340763549 1 1 1 1:0.077777778 2:0.13888889 3:0.13888889 4:0.088888889 5:0.061111111 6:0.17777778 7:0.18333333 8:0.022222222 9:0.027777778 10:0.083333333 11:0.077777778 12:0.28333333 13:0.088888889 14:0.072222222 15:0.083333333 16:0.21666667 17:0.044444444 18:0.038888889 19:0.055555556 20:0.038888889 21:0.038888889 22:0.016666667 23:0.044444444 24:0.16111111 25:0.37777778 26:0.19444444 27:0.094444444 28:0.038888889 29:0.011111111 30:0.022222222 31:0.12222222 32:0.2 33:0.21666667 34:0.066666667 35:0.16111111 36:0.11111111 37:0.011111111 38:0.061111111 39:0.011111111 40:0.038888889 41:0.022222222 42:0.0055555556 43:0.0055555556 44:0.0055555556 45:0.077777778 46:0.41111111 47:0.15555556 48:0.24444444 49:0.038888889 50:0.033333333 51:0.022222222 52:0.033333333 53:0.061111111 54:0.094444444 55:0.10555556 56:0.5 57:0.11666667 58:0.022222222 59:0.0055555556 60:0.038888889 61:0.05 62:0.022222222 63:0.038888889 64:0.16111111 65:0.055555556 66:0.51111111 67:0.094444444 68:0.022222222 70:0.044444444 71:0.044444444 72:0.011111111 73:0.011111111 74:0.011111111 75:0.011111111 76:0.12777778 77:0.47777778 78:0.16111111 79:0.13333333 80:0.011111111 81:0.022222222 82:0.055555556 83:0.13333333 84:0.061111111 85:0.077777778 86:0.15555556 87:0.083333333 88:0.10555556 89:0.094444444 90:0.21111111 91:0.011111111 92:0.022222222 93:0.1 94:0.05 95:0.12222222 96:0.40555556 97:0.20555556 98:0.0055555556 99:0.011111111 100:0.066666667 101:0.011111111 102:0.077777778 103:0.055555556 104:0.055555556 105:0.061111111 106:0.47222222 107:0.17777778 108:0.0055555556 109:0.011111111 110:0.072222222 111:0.077777778 112:0.11666667 113:0.15555556 114:0.094444444 115:0.28333333 116:0.20555556 118:0.016666667 119:0.022222222 120:0.027777778 121:0.016666667 122:0.044444444 123:0.21666667 124:0.061111111 125:0.038888889 126:0.038888889 127:0.088888889 128:0.15 129:0.072222222 130:0.27222222 131:0.13888889 132:0.11666667 133:0.072222222 134:0.055555556 135:0.016666667 136:0.016666667 137:0.055555556 138:0.18333333 139:0.083333333 140:0.26111111 141:0.044444444 142:0.05 143:0.22222222 144:0.1 145:0.19444444 146:0.0055555556 147:0.022222222 148:0.0055555556 149:0.17777778 150:0.17777778 151:0.011111111 152:0.0055555556 153:0.0055555556 154:0.0055555556 155:0.022222222 156:0.061111111 157:0.088888889 158:0.32777778 159:0.40555556 160:0.066666667 161:0.0055555556 162:0.0055555556 163:0.044444444 164:0.11111111 165:0.033333333 166:0.13888889 167:0.077777778 168:0.044444444 169:0.033333333 170:0.50555556 171:0.088888889 172:0.13888889 173:0.077777778 174:0.072222222 175:0.061111111 176:0.044444444 177:0.066666667 178:0.13888889 179:0.18333333 180:0.12777778 181:0.033333333 182:0.16666667 183:0.11666667 184:0.083333333 185:0.077777778 186:0.022222222 187:0.11666667 188:0.20555556 189:0.077777778 190:0.1 191:0.038888889 192:0.027777778 193:0.088888889 194:0.022222222 195:0.027777778 196:0.14444444 197:0.17222222 198:0.36111111 199:0.083333333 200:0.033333333 201:0.12222222 202:0.17777778 203:0.12777778 204:0.011111111 205:0.016666667 206:0.0055555556 207:0.011111111 208:0.011111111 209:0.016666667 210:0.5 211:0.12222222 212:0.088888889 213:0.22777778 214:0.022222222 215:0.0055555556 216:0.0055555556 217:0.0055555556 218:0.011111111 219:0.055555556 220:0.45555556 221:0.12222222 222:0.23333333 223:0.066666667 224:0.011111111 225:0.0055555556 226:0.0055555556 227:0.022222222 228:0.0055555556 229:0.3 230:0.22777778 231:0.05 232:0.16666667 233:0.16666667 234:0.011111111 235:0.038888889 236:0.51111111 237:0.022222222 239:0.0055555556 240:0.027777778 241:0.027777778 242:0.15555556 243:0.16111111 244:0.23333333 245:0.33888889 246:0.016666667 247:0.022222222 248:0.0055555556 249:0.0055555556 250:0.033333333 251:0.044444444 252:0.061111111 253:0.13333333 254:0.62222222 255:0.044444444 256:0.027777778 257:0.022222222 258:0.038888889 260:0.0055555556 261:0.022222222 262:0.033333333 263:0.15 264:0.2 265:0.027777778 266:0.016666667 267:0.016666667 268:0.016666667 269:0.05 270:0.46666667 271:0.011111111 272:0.011111111 273:0.044444444 274:0.13888889 275:0.11666667 276:0.083333333 277:0.022222222 278:0.044444444 279:0.12222222 280:0.40555556 281:0.077777778 282:0.094444444 283:0.066666667 284:0.12222222 285:0.52222222 286:0.066666667 287:0.011111111 288:0.011111111 289:0.0055555556 290:0.022222222 291:0.027777778 292:0.072222222 293:0.13888889 294:0.061111111 295:0.37777778 296:0.21666667 297:0.044444444 298:0.016666667 299:0.027777778 300:0.016666667 301:0.65555556 302:0.16111111 303:0.12777778 308:0.0055555556 309:0.016666667 310:0.033333333 311:0.53333333 312:0.061111111 313:0.033333333 314:0.016666667 315:0.016666667 316:0.027777778 317:0.10555556 318:0.022222222 319:0.055555556 320:0.12777778 321:0.52222222 322:0.011111111 323:0.077777778 324:0.011111111 325:0.016666667 326:0.022222222 327:0.016666667 328:0.12777778 329:0.11111111 330:0.083333333 331:0.51666667 332:0.016666667 333:0.061111111 334:0.027777778 335:0.022222222 336:0.016666667 338:0.0055555556 339:0.13888889 340:0.19444444 341:0.027777778 342:0.2 343:0.57777778 344:0.05 345:0.016666667 346:0.044444444 347:0.0055555556 348:0.011111111 349:0.0055555556 350:0.061111111 351:0.53888889 352:0.077777778 353:0.061111111 354:0.094444444 355:0.077777778 356:0.016666667 357:0.055555556 358:0.061111111 359:0.011111111 360:0.0055555556 361:0.52222222 362:0.033333333 363:0.066666667 364:0.05 365:0.094444444 366:0.033333333 367:0.05 368:0.061111111 369:0.077777778 370:0.011111111 371:0.34444444 372:0.21111111 373:0.061111111 374:0.044444444 375:0.11111111 376:0.038888889 377:0.038888889 378:0.022222222 379:0.027777778 380:0.1 381:0.13333333 382:0.061111111 383:0.05 384:0.016666667 385:0.016666667 386:0.022222222 387:0.027777778 388:0.28888889 389:0.32222222 390:0.061111111 391:0.11111111 392:0.033333333 393:0.027777778 394:0.033333333 395:0.055555556 396:0.25555556 397:0.17222222 398:0.15 399:0.088888889 400:0.072222222 401:0.1 402:0.033333333 403:0.033333333 404:0.022222222 405:0.05 406:0.18888889 407:0.23333333 408:0.18888889 409:0.083333333 410:0.066666667 411:0.11111111 412:0.027777778 413:0.022222222 414:0.027777778 415:0.1 416:0.32777778 417:0.18333333 418:0.033333333 419:0.016666667 420:0.15 421:0.16666667 422:0.18333333 423:0.43333333 424:0.055555556 425:0.12222222 428:0.0055555556 429:0.0055555556 430:0.027777778 431:0.022222222 432:0.011111111 433:0.038888889 434:0.13888889 435:0.20555556 436:0.27222222 437:0.24444444 438:0.027777778 439:0.022222222 440:0.016666667 441:0.022222222 442:0.022222222 443:0.12777778 444:0.32777778 445:0.30555556 446:0.12777778 447:0.027777778 448:0.0055555556 449:0.016666667 450:0.016666667 451:0.072222222 452:0.077777778 453:0.044444444 454:0.061111111 455:0.05 456:0.20555556 457:0.13888889 458:0.29444444 459:0.033333333 460:0.022222222 461:0.044444444 462:0.016666667 463:0.19444444 464:0.055555556 465:0.088888889 466:0.077777778 467:0.14444444 468:0.033333333 469:0.14444444 470:0.2 471:0.044444444 472:0.05 473:0.044444444 474:0.066666667 475:0.21666667 476:0.5 477:0.011111111 479:0.027777778 480:0.038888889 481:0.05 482:0.038888889 483:0.072222222 484:0.038888889 485:0.061111111 486:0.58333333 487:0.083333333 488:0.0055555556 489:0.022222222 490:0.044444444 491:0.055555556 492:0.21666667 493:0.061111111 494:0.088888889 495:0.05 496:0.21666667 497:0.055555556 498:0.083333333 499:0.044444444 500:0.12777778 501:0.19444444 502:0.12222222 503:0.038888889 504:0.022222222 505:0.033333333 506:0.016666667 507:0.022222222 508:0.022222222 509:0.027777778 510:0.5 511:0.2 512:0.12777778 513:0.033333333 514:0.027777778 515:0.027777778 516:0.027777778 517:0.022222222 518:0.027777778 519:0.22777778 520:0.27777778 521:0.17222222 522:0.066666667 523:0.13333333 524:0.027777778 525:0.027777778 526:0.022222222 527:0.05 528:0.12222222 529:0.05 530:0.32777778 531:0.12222222 532:0.033333333 533:0.066666667 534:0.027777778 535:0.22777778 536:0.17222222 537:0.072222222 538:0.12222222 539:0.055555556 540:0.1 541:0.15555556 542:0.061111111 543:0.072222222 544:0.066666667 545:0.027777778 546:0.022222222 547:0.033333333 548:0.022222222 549:0.033333333 550:0.50555556 551:0.17222222 552:0.10555556 553:0.066666667 554:0.027777778 555:0.022222222 556:0.033333333 557:0.027777778 558:0.027777778 559:0.16666667 560:0.35 561:0.11666667 562:0.18888889 563:0.05 564:0.022222222 565:0.022222222 566:0.033333333 567:0.044444444 568:0.077777778 569:0.22222222 570:0.22222222 
1 1 1 1 1 1:0.13372093 2:0.01744186 3:0.087209302 4:0.20930233 5:0.063953488 6:0.058139535 7:0.081395349 8:0.11627907 9:0.14534884 10:0.087209302 11:0.13372093 12:0.023255814 13:0.087209302 14:0.063953488 15:0.058139535 16:0.1627907 17:0.24418605 18:0.063953488 19:0.063953488 20:0.098837209 21:0.029069767 22:0.052325581 23:0.034883721 24:0.11627907 25:0.13372093 26:0.093023256 27:0.11046512 28:0.18604651 29:0.13953488 30:0.10465116 31:0.040697674 32:0.034883721 33:0.12790698 34:0.19186047 35:0.1744186 36:0.093023256 37:0.18023256 38:0.046511628 39:0.081395349 40:0.029069767 41:0.029069767 42:0.075581395 43:0.20348837 44:0.1744186 45:0.22093023 46:0.029069767 47:0.029069767 48:0.011627907 49:0.098837209 50:0.12790698 51:0.15116279 52:0.16860465 53:0.098837209 54:0.098837209 55:0.10465116 56:0.098837209 57:0.023255814 58:0.034883721 59:0.081395349 60:0.13953488 61:0.075581395 62:0.1627907 63:0.12790698 64:0.098837209 65:0.052325581 66:0.18604651 67:0.029069767 68:0.029069767 69:0.087209302 70:0.15116279 71:0.13372093 72:0.046511628 73:0.01744186 74:0.10465116 75:0.15116279 76:0.075581395 77:0.069767442 78:0.13953488 79:0.12209302 80:0.13953488 81:0.13953488 82:0.16860465 83:0.063953488 84:0.0058139535 86:0.029069767 87:0.058139535 88:0.20348837 89:0.1744186 90:0.15697674 91:0.034883721 92:0.040697674 93:0.034883721 94:0.11046512 95:0.081395349 96:0.13372093 97:0.075581395 98:0.12790698 99:0.26744186 100:0.093023256 101:0.029069767 102:0.040697674 103:0.0058139535 104:0.14534884 105:0.063953488 106:0.12209302 107:0.087209302 108:0.075581395 109:0.21511628 110:0.21511628 111:0.081395349 112:0.11627907 113:0.11046512 114:0.087209302 115:0.081395349 116:0.040697674 117:0.029069767 118:0.14534884 119:0.093023256 120:0.21511628 121:0.12209302 122:0.052325581 123:0.063953488 124:0.23255814 125:0.25 126:0.13953488 127:0.034883721 128:0.040697674 129:0.040697674 130:0.023255814 131:0.081395349 132:0.10465116 133:0.23255814 134:0.16860465 135:0.1627907 136:0.12209302 137:0.087209302 138:0.01744186 139:0.0058139535 140:0.01744186 141:0.040697674 142:0.11627907 143:0.075581395 144:0.19767442 145:0.33139535 146:0.15116279 147:0.063953488 148:0.0058139535 149:0.0058139535 150:0.011627907 151:0.075581395 152:0.040697674 153:0.28488372 154:0.052325581 155:0.13953488 156:0.19186047 157:0.081395349 158:0.034883721 159:0.063953488 160:0.034883721 161:0.15697674 162:0.034883721 163:0.034883721 164:0.029069767 165:0.087209302 166:0.14534884 167:0.13953488 168:0.093023256 169:0.14534884 170:0.13372093 171:0.11046512 172:0.040697674 173:0.063953488 174:0.046511628 175:0.040697674 176:0.15116279 177:0.12790698 178:0.075581395 179:0.18604651 180:0.15697674 181:0.13372093 182:0.052325581 183:0.075581395 184:0.058139535 185:0.15697674 186:0.052325581 187:0.087209302 188:0.081395349 189:0.15697674 190:0.14534884 191:0.22674419 192:0.063953488 193:0.023255814 194:0.034883721 195:0.069767442 196:0.052325581 197:0.087209302 198:0.093023256 199:0.25581395 200:0.093023256 201:0.01744186 202:0.023255814 203:0.14534884 204:0.26162791 205:0.040697674 206:0.023255814 207:0.093023256 208:0.087209302 209:0.21511628 210:0.093023256 211:0.063953488 212:0.063953488 213:0.011627907 214:0.029069767 215:0.31976744 216:0.040697674 217:0.034883721 218:0.081395349 219:0.1744186 220:0.18023256 221:0.23255814 222:0.13372093 223:0.058139535 224:0.046511628 225:0.046511628 226:0.087209302 227:0.20348837 228:0.093023256 229:0.075581395 230:0.023255814 231:0.12790698 232:0.081395349 233:0.046511628 234:0.14534884 235:0.1627907 236:0.18023256 237:0.093023256 238:0.011627907 239:0.040697674 240:0.11046512 241:0.023255814 242:0.13372093 243:0.23255814 244:0.075581395 245:0.18604651 246:0.18023256 247:0.0058139535 248:0.01744186 249:0.12790698 250:0.01744186 251:0.040697674 252:0.12790698 253:0.093023256 254:0.18604651 255:0.093023256 256:0.21511628 257:0.069767442 258:0.01744186 259:0.12790698 260:0.029069767 261:0.20348837 262:0.098837209 263:0.098837209 264:0.081395349 265:0.046511628 266:0.069767442 267:0.058139535 268:0.15116279 269:0.15116279 270:0.040697674 271:0.23837209 272:0.19186047 273:0.10465116 274:0.029069767 275:0.029069767 276:0.087209302 277:0.063953488 278:0.052325581 279:0.15697674 280:0.046511628 281:0.011627907 282:0.052325581 283:0.098837209 284:0.040697674 285:0.13372093 286:0.27906977 287:0.12790698 288:0.063953488 289:0.14534884 290:0.046511628 291:0.011627907 292:0.034883721 293:0.069767442 294:0.081395349 295:0.081395349 296:0.31976744 297:0.12790698 298:0.063953488 299:0.13953488 300:0.069767442 301:0.034883721 302:0.058139535 303:0.01744186 304:0.034883721 305:0.052325581 306:0.12209302 307:0.20930233 308:0.14534884 309:0.20348837 310:0.12209302 311:0.040697674 312:0.12209302 313:0.15697674 314:0.20930233 315:0.046511628 316:0.01744186 317:0.011627907 318:0.29069767 319:0.069767442 320:0.034883721 321:0.029069767 322:0.058139535 323:0.098837209 324:0.3372093 325:0.040697674 326:0.01744186 327:0.011627907 328:0.01744186 329:0.22093023 330:0.16860465 331:0.058139535 332:0.075581395 333:0.31395349 334:0.093023256 335:0.040697674 336:0.011627907 337:0.011627907 338:0.040697674 339:0.30232558 340:0.052325581 341:0.029069767 342:0.052325581 343:0.029069767 344:0.098837209 345:0.093023256 346:0.15697674 347:0.34302326 348:0.13372093 349:0.023255814 350:0.040697674 351:0.052325581 352:0.15697674 353:0.19186047 354:0.081395349 355:0.058139535 356:0.046511628 357:0.01744186 358:0.029069767 359:0.034883721 360:0.33139535 361:0.023255814 362:0.046511628 363:0.19767442 364:0.19186047 365:0.087209302 366:0.052325581 367:0.023255814 368:0.046511628 369:0.29069767 370:0.040697674 371:0.029069767 372:0.052325581 373:0.14534884 374:0.19767442 375:0.13372093 376:0.052325581 377:0.011627907 378:0.01744186 379:0.29651163 380:0.063953488 381:0.034883721 382:0.081395349 383:0.034883721 384:0.023255814 385:0.18023256 386:0.31976744 387:0.01744186 388:0.029069767 389:0.046511628 390:0.23255814 391:0.052325581 392:0.052325581 393:0.034883721 394:0.01744186 395:0.087209302 396:0.3372093 397:0.10465116 398:0.023255814 399:0.058139535 400:0.23255814 401:0.058139535 402:0.040697674 403:0.034883721 404:0.023255814 405:0.029069767 406:0.040697674 407:0.23255814 408:0.25 409:0.052325581 410:0.23837209 411:0.029069767 412:0.075581395 413:0.20348837 414:0.27325581 415:0.046511628 416:0.029069767 417:0.01744186 418:0.034883721 419:0.081395349 420:0.20930233 421:0.11627907 422:0.20930233 423:0.13372093 424:0.011627907 425:0.023255814 426:0.069767442 427:0.069767442 428:0.19186047 429:0.10465116 430:0.069767442 431:0.023255814 432:0.034883721 433:0.029069767 434:0.046511628 435:0.098837209 436:0.20348837 437:0.29651163 438:0.098837209 439:0.098837209 440:0.069767442 441:0.01744186 442:0.011627907 443:0.01744186 444:0.01744186 445:0.034883721 446:0.11627907 447:0.11627907 448:0.12790698 449:0.37209302 450:0.16860465 451:0.046511628 452:0.029069767 453:0.023255814 454:0.01744186 455:0.023255814 456:0.034883721 457:0.034883721 458:0.19186047 459:0.28488372 460:0.31395349 461:0.046511628 462:0.11046512 463:0.098837209 464:0.20348837 465:0.12209302 466:0.023255814 467:0.093023256 468:0.075581395 469:0.19767442 470:0.029069767 471:0.034883721 472:0.26162791 473:0.15116279 474:0.023255814 475:0.069767442 476:0.046511628 477:0.093023256 478:0.063953488 479:0.22674419 480:0.029069767 481:0.21511628 482:0.011627907 483:0.093023256 484:0.12209302 485:0.034883721 486:0.098837209 487:0.023255814 488:0.12209302 489:0.23837209 490:0.040697674 491:0.058139535 492:0.23255814 493:0.31395349 494:0.069767442 495:0.034883721 496:0.040697674 497:0.087209302 498:0.069767442 499:0.075581395 500:0.01744186 501:0.3255814 502:0.011627907 503:0.023255814 504:0.046511628 505:0.01744186 506:0.01744186 507:0.13372093 508:0.27325581 509:0.081395349 510:0.069767442 511:0.30813953 512:0.029069767 513:0.01744186 514:0.046511628 515:0.01744186 516:0.029069767 517:0.052325581 518:0.098837209 519:0.30813953 520:0.093023256 521:0.31395349 522:0.023255814 523:0.029069767 524:0.046511628 525:0.029069767 526:0.075581395 527:0.19767442 528:0.22093023 529:0.052325581 530:0.011627907 531:0.20930233 532:0.19186047 533:0.069767442 534:0.0058139535 535:0.029069767 536:0.19186047 537:0.098837209 538:0.098837209 539:0.081395349 540:0.023255814 541:0.33139535 542:0.023255814 543:0.046511628 544:0.01744186 545:0.01744186 546:0.075581395 547:0.1627907 548:0.19767442 549:0.046511628 550:0.081395349 551:0.3255814 552:0.034883721 553:0.063953488 554:0.046511628 555:0.18604651 556:0.19186047 557:0.11046512 558:0.023255814 559:0.011627907 560:0.0058139535 561:0.33139535 562:0.052325581 563:0.046511628 564:0.081395349 565:0.26162791 566:0.14534884 567:0.040697674 568:0.023255814 569:0.011627907 570:0.0058139535 
1 1 1 1 1 1:0.18181818 3:0.0056818182 4:0.0056818182 5:0.0056818182 6:0.17045455 7:0.27840909 8:0.25568182 9:0.034090909 10:0.0625 11:0.17613636 12:0.017045455 13:0.13636364 14:0.26704545 15:0.11363636 16:0.19886364 17:0.011363636 18:0.011363636 19:0.017045455 20:0.051136364 21:0.085227273 22:0.26704545 23:0.19886364 24:0.21022727 25:0.073863636 26:0.073863636 27:0.011363636 28:0.011363636 29:0.017045455 30:0.051136364 31:0.073863636 32:0.0056818182 33:0.017045455 34:0.0625 35:0.085227273 36:0.25568182 37:0.23863636 38:0.17045455 39:0.051136364 40:0.039772727 41:0.11363636 42:0.17045455 43:0.056818182 44:0.10795455 45:0.045454545 46:0.0056818182 47:0.011363636 48:0.0056818182 49:0.30113636 50:0.18181818 51:0.11363636 52:0.13068182 53:0.13068182 54:0.085227273 55:0.0056818182 56:0.017045455 57:0.011363636 58:0.0056818182 59:0.24431818 60:0.25568182 61:0.0625 62:0.125 63:0.14772727 64:0.11931818 65:0.0056818182 66:0.011363636 67:0.011363636 68:0.017045455 69:0.14772727 70:0.35227273 71:0.19318182 72:0.22727273 73:0.14772727 74:0.039772727 75:0.022727273 76:0.068181818 77:0.18181818 78:0.022727273 79:0.0625 80:0.034090909 81:0.13636364 82:0.17613636 83:0.085227273 84:0.1875 85:0.15340909 86:0.039772727 87:0.051136364 88:0.045454545 89:0.079545455 90:0.045454545 91:0.19318182 92:0.073863636 93:0.051136364 94:0.10227273 95:0.068181818 96:0.17613636 97:0.073863636 98:0.125 99:0.079545455 100:0.056818182 101:0.20454545 102:0.079545455 103:0.039772727 104:0.079545455 105:0.125 106:0.13636364 107:0.11363636 108:0.090909091 109:0.0625 110:0.068181818 111:0.068181818 112:0.034090909 113:0.24431818 114:0.017045455 115:0.034090909 116:0.056818182 117:0.11931818 118:0.26704545 119:0.13068182 120:0.028409091 121:0.085227273 122:0.15340909 123:0.090909091 124:0.25568182 125:0.22727273 126:0.045454545 127:0.034090909 128:0.039772727 129:0.034090909 130:0.034090909 131:0.051136364 132:0.10795455 133:0.096590909 134:0.096590909 135:0.13636364 136:0.18181818 137:0.22159091 138:0.051136364 139:0.022727273 140:0.034090909 141:0.079545455 142:0.125 143:0.10227273 144:0.11931818 145:0.056818182 146:0.13068182 147:0.090909091 148:0.0625 149:0.017045455 150:0.21590909 151:0.13068182 152:0.17045455 153:0.32386364 154:0.073863636 155:0.011363636 156:0.085227273 157:0.085227273 158:0.0056818182 159:0.045454545 160:0.068181818 161:0.011363636 163:0.011363636 164:0.034090909 165:0.3125 166:0.11363636 167:0.096590909 168:0.17045455 169:0.079545455 170:0.17045455 171:0.0056818182 172:0.085227273 173:0.21022727 174:0.085227273 175:0.045454545 176:0.051136364 177:0.0625 178:0.14204545 179:0.13068182 180:0.18181818 181:0.017045455 182:0.028409091 183:0.0056818182 184:0.085227273 185:0.14772727 186:0.20454545 187:0.14772727 188:0.11931818 189:0.079545455 190:0.16477273 191:0.15340909 192:0.011363636 193:0.045454545 194:0.096590909 195:0.068181818 196:0.045454545 197:0.034090909 198:0.10227273 199:0.35227273 200:0.090909091 201:0.045454545 202:0.26136364 203:0.079545455 204:0.039772727 205:0.011363636 206:0.022727273 207:0.039772727 208:0.125 209:0.096590909 210:0.27840909 211:0.045454545 212:0.073863636 213:0.022727273 214:0.23863636 215:0.045454545 216:0.017045455 217:0.017045455 218:0.090909091 219:0.33522727 220:0.11363636 221:0.1875 222:0.079545455 223:0.085227273 224:0.034090909 225:0.011363636 226:0.017045455 227:0.073863636 228:0.22727273 229:0.23863636 230:0.045454545 231:0.15909091 232:0.125 233:0.19886364 234:0.056818182 239:0.22727273 240:0.23295455 241:0.22727273 242:0.16477273 243:0.11363636 244:0.034090909 247:0.028409091 248:0.0056818182 249:0.3125 250:0.11363636 251:0.125 252:0.23863636 253:0.13068182 254:0.039772727 256:0.0056818182 257:0.0056818182 258:0.022727273 259:0.22727273 260:0.20454545 261:0.034090909 262:0.039772727 263:0.045454545 264:0.21022727 265:0.13068182 266:0.045454545 267:0.090909091 268:0.22159091 270:0.18181818 271:0.017045455 272:0.011363636 273:0.028409091 274:0.22159091 275:0.18181818 276:0.079545455 277:0.028409091 278:0.10227273 279:0.073863636 280:0.25568182 281:0.10227273 282:0.21590909 283:0.14772727 284:0.079545455 285:0.0056818182 289:0.17613636 290:0.27272727 291:0.090909091 292:0.21022727 293:0.20454545 294:0.039772727 295:0.0056818182 298:0.011363636 299:0.13068182 300:0.30681818 301:0.039772727 302:0.011363636 303:0.039772727 304:0.073863636 305:0.051136364 306:0.017045455 307:0.27272727 308:0.3125 309:0.13636364 310:0.045454545 311:0.14204545 312:0.073863636 313:0.27840909 314:0.125 315:0.017045455 316:0.011363636 317:0.034090909 318:0.125 319:0.14772727 320:0.045454545 321:0.045454545 322:0.090909091 323:0.26136364 324:0.13068182 325:0.068181818 326:0.028409091 327:0.039772727 328:0.022727273 329:0.23295455 330:0.079545455 331:0.051136364 332:0.096590909 333:0.24431818 334:0.13636364 335:0.068181818 336:0.022727273 337:0.022727273 338:0.034090909 339:0.10795455 340:0.21590909 341:0.039772727 342:0.034090909 343:0.13068182 344:0.068181818 345:0.056818182 346:0.039772727 347:0.17045455 348:0.073863636 349:0.068181818 350:0.31818182 351:0.073863636 352:0.10795455 353:0.25568182 354:0.085227273 355:0.096590909 356:0.022727273 357:0.056818182 358:0.034090909 359:0.17045455 360:0.096590909 361:0.022727273 362:0.079545455 363:0.028409091 364:0.125 365:0.30681818 366:0.039772727 367:0.034090909 368:0.022727273 369:0.056818182 370:0.28409091 371:0.022727273 372:0.085227273 373:0.022727273 374:0.13068182 375:0.30113636 376:0.0625 377:0.028409091 378:0.039772727 379:0.27272727 380:0.034090909 381:0.051136364 382:0.073863636 383:0.028409091 384:0.034090909 385:0.022727273 386:0.017045455 387:0.028409091 388:0.21590909 389:0.27272727 390:0.25568182 391:0.0625 392:0.056818182 393:0.022727273 394:0.028409091 395:0.039772727 396:0.0625 397:0.22727273 398:0.3125 399:0.022727273 400:0.16477273 401:0.079545455 402:0.028409091 403:0.022727273 404:0.028409091 405:0.034090909 406:0.068181818 407:0.068181818 408:0.30681818 409:0.19318182 410:0.17045455 411:0.045454545 412:0.0625 413:0.034090909 414:0.090909091 415:0.32954545 416:0.20454545 417:0.017045455 418:0.028409091 419:0.022727273 420:0.16477273 421:0.090909091 422:0.36363636 423:0.13636364 424:0.056818182 425:0.011363636 426:0.028409091 427:0.017045455 428:0.045454545 429:0.15909091 430:0.090909091 431:0.022727273 432:0.039772727 433:0.045454545 434:0.48863636 435:0.17613636 436:0.056818182 437:0.039772727 438:0.022727273 439:0.017045455 440:0.090909091 441:0.011363636 442:0.056818182 443:0.045454545 444:0.19318182 445:0.39204545 446:0.11363636 447:0.056818182 448:0.028409091 449:0.056818182 450:0.045454545 451:0.085227273 452:0.017045455 453:0.017045455 454:0.045454545 455:0.034090909 456:0.27272727 457:0.10227273 458:0.039772727 459:0.10227273 460:0.28409091 461:0.017045455 462:0.017045455 463:0.090909091 464:0.045454545 465:0.085227273 466:0.039772727 467:0.17045455 468:0.21590909 469:0.068181818 470:0.25 471:0.073863636 472:0.079545455 473:0.19318182 474:0.045454545 475:0.34090909 476:0.13636364 477:0.045454545 478:0.034090909 479:0.0056818182 480:0.045454545 481:0.017045455 482:0.073863636 483:0.18181818 484:0.085227273 485:0.27272727 486:0.17045455 487:0.10795455 488:0.039772727 490:0.051136364 491:0.017045455 492:0.011363636 493:0.045454545 494:0.24431818 495:0.22727273 496:0.14772727 497:0.13068182 498:0.017045455 499:0.10227273 500:0.056818182 501:0.19318182 502:0.056818182 503:0.034090909 504:0.068181818 505:0.017045455 506:0.079545455 507:0.045454545 508:0.30681818 509:0.11931818 510:0.079545455 511:0.22727273 512:0.045454545 513:0.034090909 514:0.034090909 515:0.028409091 516:0.051136364 517:0.085227273 518:0.31818182 519:0.10227273 520:0.073863636 521:0.22727273 522:0.039772727 523:0.028409091 524:0.034090909 525:0.034090909 526:0.017045455 527:0.0625 528:0.31818182 529:0.15909091 530:0.079545455 531:0.096590909 532:0.085227273 533:0.022727273 534:0.13636364 535:0.22159091 536:0.14204545 537:0.051136364 538:0.079545455 539:0.073863636 540:0.090909091 541:0.21590909 542:0.068181818 543:0.011363636 544:0.051136364 545:0.022727273 546:0.028409091 547:0.090909091 548:0.14772727 549:0.125 550:0.23863636 551:0.23295455 552:0.056818182 553:0.028409091 554:0.039772727 555:0.022727273 556:0.039772727 557:0.15909091 558:0.10795455 559:0.27840909 560:0.034090909 561:0.23295455 562:0.045454545 563:0.034090909 564:0.051136364 565:0.028409091 566:0.056818182 567:0.15909091 568:0.085227273 569:0.27272727 570:0.034090909 
